{"learner":{"attributes":{"best_iteration":"499","best_score":"0.34839382647122596"},"feature_names":[],"feature_types":[],"gradient_booster":{"model":{"gbtree_model_param":{"num_parallel_tree":"1","num_trees":"500"},"iteration_indptr":[0,1,2,3,4,5,6,7,8,9,10,11,12,13,14,15,16,17,18,19,20,21,22,23,24,25,26,27,28,29,30,31,32,33,34,35,36,37,38,39,40,41,42,43,44,45,46,47,48,49,50,51,52,53,54,55,56,57,58,59,60,61,62,63,64,65,66,67,68,69,70,71,72,73,74,75,76,77,78,79,80,81,82,83,84,85,86,87,88,89,90,91,92,93,94,95,96,97,98,99,100,101,102,103,104,105,106,107,108,109,110,111,112,113,114,115,116,117,118,119,120,121,122,123,124,125,126,127,128,129,130,131,132,133,134,135,136,137,138,139,140,141,142,143,144,145,146,147,148,149,150,151,152,153,154,155,156,157,158,159,160,161,162,163,164,165,166,167,168,169,170,171,172,173,174,175,176,177,178,179,180,181,182,183,184,185,186,187,188,189,190,191,192,193,194,195,196,197,198,199,200,201,202,203,204,205,206,207,208,209,210,211,212,213,214,215,216,217,218,219,220,221,222,223,224,225,226,227,228,229,230,231,232,233,234,235,236,237,238,239,240,241,242,243,244,245,246,247,248,249,250,251,252,253,254,255,256,257,258,259,260,261,262,263,264,265,266,267,268,269,270,271,272,273,274,275,276,277,278,279,280,281,282,283,284,285,286,287,288,289,290,291,292,293,294,295,296,297,298,299,300,301,302,303,304,305,306,307,308,309,310,311,312,313,314,315,316,317,318,319,320,321,322,323,324,325,326,327,328,329,330,331,332,333,334,335,336,337,338,339,340,341,342,343,344,345,346,347,348,349,350,351,352,353,354,355,356,357,358,359,360,361,362,363,364,365,366,367,368,369,370,371,372,373,374,375,376,377,378,379,380,381,382,383,384,385,386,387,388,389,390,391,392,393,394,395,396,397,398,399,400,401,402,403,404,405,406,407,408,409,410,411,412,413,414,415,416,417,418,419,420,421,422,423,424,425,426,427,428,429,430,431,432,433,434,435,436,437,438,439,440,441,442,443,444,445,446,447,448,449,450,451,452,453,454,455,456,457,458,459,460,461,462,463,464,465,466,467,468,469,470,471,472,473,474,475,476,477,478,479,480,481,482,483,484,485,486,487,488,489,490,491,492,493,494,495,496,497,498,499,500],"tree_info":[0,0,0,0,0,0,0,0,0,0,0,0,0,0,0,0,0,0,0,0,0,0,0,0,0,0,0,0,0,0,0,0,0,0,0,0,0,0,0,0,0,0,0,0,0,0,0,0,0,0,0,0,0,0,0,0,0,0,0,0,0,0,0,0,0,0,0,0,0,0,0,0,0,0,0,0,0,0,0,0,0,0,0,0,0,0,0,0,0,0,0,0,0,0,0,0,0,0,0,0,0,0,0,0,0,0,0,0,0,0,0,0,0,0,0,0,0,0,0,0,0,0,0,0,0,0,0,0,0,0,0,0,0,0,0,0,0,0,0,0,0,0,0,0,0,0,0,0,0,0,0,0,0,0,0,0,0,0,0,0,0,0,0,0,0,0,0,0,0,0,0,0,0,0,0,0,0,0,0,0,0,0,0,0,0,0,0,0,0,0,0,0,0,0,0,0,0,0,0,0,0,0,0,0,0,0,0,0,0,0,0,0,0,0,0,0,0,0,0,0,0,0,0,0,0,0,0,0,0,0,0,0,0,0,0,0,0,0,0,0,0,0,0,0,0,0,0,0,0,0,0,0,0,0,0,0,0,0,0,0,0,0,0,0,0,0,0,0,0,0,0,0,0,0,0,0,0,0,0,0,0,0,0,0,0,0,0,0,0,0,0,0,0,0,0,0,0,0,0,0,0,0,0,0,0,0,0,0,0,0,0,0,0,0,0,0,0,0,0,0,0,0,0,0,0,0,0,0,0,0,0,0,0,0,0,0,0,0,0,0,0,0,0,0,0,0,0,0,0,0,0,0,0,0,0,0,0,0,0,0,0,0,0,0,0,0,0,0,0,0,0,0,0,0,0,0,0,0,0,0,0,0,0,0,0,0,0,0,0,0,0,0,0,0,0,0,0,0,0,0,0,0,0,0,0,0,0,0,0,0,0,0,0,0,0,0,0,0,0,0,0,0,0,0,0,0,0,0,0,0,0,0,0,0,0,0,0,0,0,0,0,0,0,0,0,0,0,0,0,0,0,0,0,0,0,0,0,0,0,0,0,0,0,0,0,0,0,0,0,0,0,0,0,0,0,0,0,0,0,0,0,0,0,0,0,0,0,0,0,0,0,0,0,0,0,0,0,0,0,0],"trees":[{"base_weights":[-2.8112773E-3,5.255006E-1,-4.5302293E-1,2.169176E-1,1.1612673E0,2.2408964E-2,-9.014048E-1,5.512871E-1,-2.5196084E-1,6.47093E-1,1.5175474E0,3.3817288E-1,-4.7493404E-1,-6.157502E-1,-1.2789584E0,1.9706586E-1,8.724629E-1,1.08321026E-1,-7.173533E-1,1.7609163E-1,9.6821517E-1,1.1163276E0,1.7693067E0,1.8507385E-1,1.235249E0,-5.44717E-2,-8.258835E-1,-1.6703372E-1,-8.404517E-1,-1.4139584E0,-5.546059E-1,-1.4502822E-2,5.1147934E-2,5.0626766E-2,1.1923554E-1,3.1434115E-2,-3.6681578E-2,-3.210626E-2,-1.00218825E-1,5.1726382E-2,-2.3911323E-2,3.457189E-2,1.2366947E-1,5.0212767E-2,1.3856553E-1,9.974684E-2,1.821598E-1,4.3821793E-2,-2.086463E-2,8.0256596E-2,1.7324525E-1,-2.8038302E-2,7.761733E-2,-5.1626015E-2,-1.1061865E-1,-6.934673E-2,1.4308768E-2,-9.651527E-2,-2.428115E-3,-1.4515983E-1,-2.1325648E-2,-1.2171254E-1,-2.554945E-2],"categories":[],"categories_nodes":[],"categories_segments":[],"categories_sizes":[],"default_left":[0,0,0,0,0,0,0,0,0,0,0,0,0,0,0,0,0,0,0,0,0,0,0,0,0,0,0,0,0,0,0,0,0,0,0,0,0,0,0,0,0,0,0,0,0,0,0,0,0,0,0,0,0,0,0,0,0,0,0,0,0,0,0],"id":0,"left_children":[1,3,5,7,9,11,13,15,17,19,21,23,25,27,29,31,33,35,37,39,41,43,45,47,49,51,53,55,57,59,61,-1,-1,-1,-1,-1,-1,-1,-1,-1,-1,-1,-1,-1,-1,-1,-1,-1,-1,-1,-1,-1,-1,-1,-1,-1,-1,-1,-1,-1,-1,-1,-1],"loss_changes":[6.641843E3,2.5203066E3,3.213954E3,1.3563918E3,7.680498E2,1.1494796E3,8.3601953E2,5.743529E2,6.0399194E2,2.5997772E2,2.4843066E2,6.146493E2,4.1939716E2,4.454154E2,3.259248E2,2.5851154E2,3.0962073E2,1.9892532E2,1.7709332E2,9.907065E1,1.7046027E2,1.5786023E2,5.959131E1,3.813711E2,1.3898291E2,2.4308635E2,1.3388586E2,2.4102773E2,2.9963428E2,1.2693408E2,1.0402402E2,0E0,0E0,0E0,0E0,0E0,0E0,0E0,0E0,0E0,0E0,0E0,0E0,0E0,0E0,0E0,0E0,0E0,0E0,0E0,0E0,0E0,0E0,0E0,0E0,0E0,0E0,0E0,0E0,0E0,0E0,0E0,0E0],"parents":[2147483647,0,0,1,1,2,2,3,3,4,4,5,5,6,6,7,7,8,8,9,9,10,10,11,11,12,12,13,13,14,14,15,15,16,16,17,17,18,18,19,19,20,20,21,21,22,22,23,23,24,24,25,25,26,26,27,27,28,28,29,29,30,30],"right_children":[2,4,6,8,10,12,14,16,18,20,22,24,26,28,30,32,34,36,38,40,42,44,46,48,50,52,54,56,58,60,62,-1,-1,-1,-1,-1,-1,-1,-1,-1,-1,-1,-1,-1,-1,-1,-1,-1,-1,-1,-1,-1,-1,-1,-1,-1,-1,-1,-1,-1,-1,-1,-1],"split_conditions":[2.1484645E-1,2.5769734E-1,2.4450928E-1,6.5665436E1,5.970879E-2,1.9841737E-1,2.9198086E-1,2.1414782E-1,2.2724153E-1,-2.2408365E2,1.8364109E-1,2.769442E-1,2.2189921E-1,1.7648827E-1,2.6562348E-1,9.54885E-2,7.506568E1,2.1459553E-1,1.3979803E-1,1.7566009E-1,1.7530328E-1,2.109369E-1,1.9281287E-2,1.0258825E2,1.436517E-1,2.3479453E-1,2.474232E-1,1.2614489E-1,2.7266452E-1,2.7229613E-1,9.5276415E-2,-1.4502822E-2,5.1147934E-2,5.0626766E-2,1.1923554E-1,3.1434115E-2,-3.6681578E-2,-3.210626E-2,-1.00218825E-1,5.1726382E-2,-2.3911323E-2,3.457189E-2,1.2366947E-1,5.0212767E-2,1.3856553E-1,9.974684E-2,1.821598E-1,4.3821793E-2,-2.086463E-2,8.0256596E-2,1.7324525E-1,-2.8038302E-2,7.761733E-2,-5.1626015E-2,-1.1061865E-1,-6.934673E-2,1.4308768E-2,-9.651527E-2,-2.428115E-3,-1.4515983E-1,-2.1325648E-2,-1.2171254E-1,-2.554945E-2],"split_indices":[929,2182,1382,4874,1349,1030,1371,2509,1003,4776,1444,1732,1068,967,2128,664,4872,1031,1439,957,2656,2656,304,4778,1849,2226,994,4363,1776,2169,1397,0,0,0,0,0,0,0,0,0,0,0,0,0,0,0,0,0,0,0,0,0,0,0,0,0,0,0,0,0,0,0,0],"split_type":[0,0,0,0,0,0,0,0,0,0,0,0,0,0,0,0,0,0,0,0,0,0,0,0,0,0,0,0,0,0,0,0,0,0,0,0,0,0,0,0,0,0,0,0,0,0,0,0,0,0,0,0,0,0,0,0,0,0,0,0,0,0,0],"sum_hessian":[2.792225E4,1.284675E4,1.50755E4,8.64975E3,4.197E3,7.3175E3,7.758E3,5.049E3,3.60075E3,1.719E3,2.478E3,4.476E3,2.8415E3,4.418E3,3.34E3,2.40175E3,2.64725E3,2.03E3,1.57075E3,6.975E2,1.0215E3,9.575E2,1.5205E3,3.8245E3,6.515E2,1.29325E3,1.54825E3,1.47475E3,2.94325E3,2.8145E3,5.255E2,1.1505E3,1.25125E3,1.2355E3,1.41175E3,1.41625E3,6.1375E2,6.5775E2,9.13E2,3.8275E2,3.1475E2,3.085E2,7.13E2,2.9275E2,6.6475E2,9.775E1,1.42275E3,2.32775E3,1.49675E3,3.4975E2,3.0175E2,1.01725E3,2.76E2,7.37E2,8.1125E2,5.4625E2,9.285E2,2.553E3,3.9025E2,2.72875E3,8.575E1,1.625E2,3.63E2],"tree_param":{"num_deleted":"0","num_feature":"4890","num_nodes":"63","size_leaf_vector":"1"}},{"base_weights":[2.6441934E-3,4.3214288E-1,-4.6512568E-1,5.4006226E-2,8.7906086E-1,-1.7269023E-2,-8.596864E-1,3.7778455E-1,-3.8458467E-1,4.0138116E-1,1.2404896E0,2.9914775E-1,-4.806854E-1,-6.1398107E-1,-1.1516477E0,6.2832797E-1,-1.5780976E-1,-4.4192757E-2,-7.3177946E-1,1.9999276E-1,1.0012513E0,7.6250774E-1,1.4727885E0,1.49273E-1,1.1662474E0,3.8868006E-2,-6.812455E-1,-8.331203E-1,-2.3041111E-1,-1.256812E0,-4.5398262E-1,2.0441396E-2,8.9594655E-2,-3.1903904E-2,4.945979E-2,-2.7986413E-2,4.721796E-2,-5.561316E-2,-1.1545277E-1,-1.2898421E-3,6.8718866E-2,7.163381E-2,1.4245217E-1,9.2233494E-2,-2.2875092E-3,5.8457512E-2,1.5659784E-1,-1.6412718E-2,4.3770175E-2,4.5727827E-2,1.4156786E-1,5.5783994E-2,-2.6777906E-2,-8.9790955E-2,-2.6285326E-2,-9.0251096E-2,-7.3924586E-3,-4.3156773E-2,4.4723775E-2,-1.324086E-1,-3.0575475E-2,-8.5610054E-2,1.2949213E-2],"categories":[],"categories_nodes":[],"categories_segments":[],"categories_sizes":[],"default_left":[0,0,0,0,0,0,0,0,0,0,0,0,0,0,0,0,0,0,0,0,0,0,0,0,0,0,0,0,0,0,0,0,0,0,0,0,0,0,0,0,0,0,0,0,0,0,0,0,0,0,0,0,0,0,0,0,0,0,0,0,0,0,0],"id":1,"left_children":[1,3,5,7,9,11,13,15,17,19,21,23,25,27,29,31,33,35,37,39,41,43,45,47,49,51,53,55,57,59,61,-1,-1,-1,-1,-1,-1,-1,-1,-1,-1,-1,-1,-1,-1,-1,-1,-1,-1,-1,-1,-1,-1,-1,-1,-1,-1,-1,-1,-1,-1,-1,-1],"loss_changes":[5.6269966E3,2.4675193E3,2.3690393E3,1.1234647E3,1.154852E3,9.210386E2,5.1058887E2,6.108405E2,3.970631E2,3.4819562E2,4.2181445E2,4.849111E2,2.6559534E2,3.25307E2,2.3831934E2,3.516183E2,1.5281767E2,2.0673213E2,1.2286786E2,2.2407611E2,8.636194E1,1.5665631E2,2.1116699E2,2.8786053E2,9.6605286E1,1.1326094E2,1.6645593E2,1.2974341E2,1.9230856E2,1.8059229E2,1.0054789E2,0E0,0E0,0E0,0E0,0E0,0E0,0E0,0E0,0E0,0E0,0E0,0E0,0E0,0E0,0E0,0E0,0E0,0E0,0E0,0E0,0E0,0E0,0E0,0E0,0E0,0E0,0E0,0E0,0E0,0E0,0E0,0E0],"parents":[2147483647,0,0,1,1,2,2,3,3,4,4,5,5,6,6,7,7,8,8,9,9,10,10,11,11,12,12,13,13,14,14,15,15,16,16,17,17,18,18,19,19,20,20,21,21,22,22,23,23,24,24,25,25,26,26,27,27,28,28,29,29,30,30],"right_children":[2,4,6,8,10,12,14,16,18,20,22,24,26,28,30,32,34,36,38,40,42,44,46,48,50,52,54,56,58,60,62,-1,-1,-1,-1,-1,-1,-1,-1,-1,-1,-1,-1,-1,-1,-1,-1,-1,-1,-1,-1,-1,-1,-1,-1,-1,-1,-1,-1,-1,-1,-1,-1],"split_conditions":[2.4732393E-1,6.2578804E1,2.3715724E-1,2.1182169E-1,2.4641496E-1,1.8973581E-1,2.881375E-1,2.2407381E-1,7.4904816E1,2.3641483E-1,1.3333334E-1,2.769442E-1,1.499637E-1,1.3648148E-1,2.6643392E-1,2.0509937E-1,2.528506E-1,9.625456E-2,2.9796508E-1,2.4534865E-1,1.4352416E-1,2.9864156E-1,-5.236624E2,1.3268013E-1,7.397536E-2,-8.7979866E1,1.1038983E-1,2.6966083E-1,6.754609E-2,2.873451E-1,1.0786645E-1,2.0441396E-2,8.9594655E-2,-3.1903904E-2,4.945979E-2,-2.7986413E-2,4.721796E-2,-5.561316E-2,-1.1545277E-1,-1.2898421E-3,6.8718866E-2,7.163381E-2,1.4245217E-1,9.2233494E-2,-2.2875092E-3,5.8457512E-2,1.5659784E-1,-1.6412718E-2,4.3770175E-2,4.5727827E-2,1.4156786E-1,5.5783994E-2,-2.6777906E-2,-8.9790955E-2,-2.6285326E-2,-9.0251096E-2,-7.3924586E-3,-4.3156773E-2,4.4723775E-2,-1.324086E-1,-3.0575475E-2,-8.5610054E-2,1.2949213E-2],"split_indices":[929,4872,1004,967,2656,1381,1371,1343,4874,231,4363,1732,1068,4363,2209,2956,2182,1405,1381,1776,4363,3361,4776,3379,1377,4874,1771,2191,1414,1776,1396,0,0,0,0,0,0,0,0,0,0,0,0,0,0,0,0,0,0,0,0,0,0,0,0,0,0,0,0,0,0,0,0],"split_type":[0,0,0,0,0,0,0,0,0,0,0,0,0,0,0,0,0,0,0,0,0,0,0,0,0,0,0,0,0,0,0,0,0,0,0,0,0,0,0,0,0,0,0,0,0,0,0,0,0,0,0,0,0,0,0,0,0,0,0,0,0,0,0],"sum_hessian":[2.8006031E4,1.4600326E4,1.3405705E4,7.9093545E3,6.6909717E3,6.2792817E3,7.126423E3,4.55033E3,3.3590242E3,2.8829072E3,3.8080642E3,3.7316782E3,2.5476038E3,3.8714424E3,3.2549805E3,3.1000142E3,1.4503159E3,1.6966982E3,1.6623259E3,2.1593154E3,7.235919E2,1.2468364E3,2.5612278E3,3.182728E3,5.4895E2,7.097622E2,1.8378416E3,2.4630774E3,1.4083649E3,2.827907E3,4.2707355E2,1.2003676E3,1.8996467E3,1.1633329E3,2.8698306E2,1.1653107E3,5.313876E2,1.1760175E3,4.8630856E2,1.5033613E3,6.5595404E2,4.3408878E2,2.8950314E2,1.0358619E3,2.1097456E2,2.4389413E2,2.3173337E3,1.5255408E3,1.6571874E3,1.4360593E2,4.0534406E2,2.633119E2,4.4645032E2,1.2100647E3,6.27777E2,2.256632E3,2.0644539E2,1.0862733E3,3.2209158E2,2.640721E3,1.8718593E2,2.5255263E2,1.7452092E2],"tree_param":{"num_deleted":"0","num_feature":"4890","num_nodes":"63","size_leaf_vector":"1"}},{"base_weights":[1.290633E-3,3.7141165E-1,-4.37799E-1,1.3580032E-1,1.0003662E0,1.0685436E-1,-7.128184E-1,4.7518325E-1,-2.023703E-1,4.1385728E-1,1.2615216E0,4.0132135E-1,-4.1639555E-1,-2.995975E-1,-9.0687346E-1,1.9198035E-1,8.42176E-1,1.1712872E-1,-5.932127E-1,8.0649775E-1,7.593711E-2,8.059979E-1,1.4300064E0,2.070398E-2,7.28E-1,-6.373567E-1,1.0107768E-1,-4.500493E-1,6.259141E-1,-1.0326192E0,-3.2579303E-1,3.0141117E-3,7.957686E-2,1.05572656E-1,3.916779E-2,3.243598E-2,-2.8811214E-2,-7.893618E-2,-3.451829E-3,3.1757202E-2,1.0613336E-1,-1.4600264E-2,6.3887976E-2,3.9270323E-2,1.1809931E-1,7.399585E-2,1.5091935E-1,-5.0581682E-2,2.2966553E-2,4.3013435E-2,1.1373927E-1,-7.362311E-2,2.5217785E-2,-2.5918206E-2,7.2653055E-2,-6.7299746E-2,9.4066205E-4,-8.0049625E-3,1.23594776E-1,-6.1614968E-2,-1.16059415E-1,-7.24052E-2,2.3893131E-2],"categories":[],"categories_nodes":[],"categories_segments":[],"categories_sizes":[],"default_left":[0,0,0,0,0,0,0,0,0,0,0,0,0,0,0,0,0,0,0,0,0,0,0,0,0,0,0,0,0,0,0,0,0,0,0,0,0,0,0,0,0,0,0,0,0,0,0,0,0,0,0,0,0,0,0,0,0,0,0,0,0,0,0],"id":2,"left_children":[1,3,5,7,9,11,13,15,17,19,21,23,25,27,29,31,33,35,37,39,41,43,45,47,49,51,53,55,57,59,61,-1,-1,-1,-1,-1,-1,-1,-1,-1,-1,-1,-1,-1,-1,-1,-1,-1,-1,-1,-1,-1,-1,-1,-1,-1,-1,-1,-1,-1,-1,-1,-1],"loss_changes":[4.524739E3,2.2386035E3,1.9075664E3,1.2615778E3,6.300625E2,6.586367E2,6.782632E2,5.7003687E2,6.876569E2,1.6842453E2,2.1743066E2,3.4006903E2,1.7608603E2,3.7700555E2,4.203452E2,3.026913E2,2.2944702E2,2.5458835E2,2.7139685E2,7.283386E1,8.55004E1,1.1907089E2,1.1241846E2,1.3921777E2,1.7899078E2,9.5079956E1,1.041778E2,2.3844928E2,1.6320114E2,2.5152441E2,2.3086157E2,0E0,0E0,0E0,0E0,0E0,0E0,0E0,0E0,0E0,0E0,0E0,0E0,0E0,0E0,0E0,0E0,0E0,0E0,0E0,0E0,0E0,0E0,0E0,0E0,0E0,0E0,0E0,0E0,0E0,0E0,0E0,0E0],"parents":[2147483647,0,0,1,1,2,2,3,3,4,4,5,5,6,6,7,7,8,8,9,9,10,10,11,11,12,12,13,13,14,14,15,15,16,16,17,17,18,18,19,19,20,20,21,21,22,22,23,23,24,24,25,25,26,26,27,27,28,28,29,29,30,30],"right_children":[2,4,6,8,10,12,14,16,18,20,22,24,26,28,30,32,34,36,38,40,42,44,46,48,50,52,54,56,58,60,62,-1,-1,-1,-1,-1,-1,-1,-1,-1,-1,-1,-1,-1,-1,-1,-1,-1,-1,-1,-1,-1,-1,-1,-1,-1,-1,-1,-1,-1,-1,-1,-1],"split_conditions":[2.54464E-1,2.62848E-1,1.6051188E-1,4.697676E0,3.952158E-2,2.1800262E-1,2.5637013E-1,1.8063565E-1,2.0319861E-1,-6.9987175E1,7.637435E-2,1.3138358E-1,9.3291365E-2,2.4249247E-1,2.624879E-1,2.6462147E-1,1.2055227E-1,1.9345517E-1,8.053364E-2,1.4017871E-1,8.540942E-2,1.3858049E-1,-4.7973355E2,6.284092E-2,2.175776E-1,2.703031E-1,2.372921E-1,1.3876146E-1,9.513172E-2,1.5347353E-1,1.1084904E-1,3.0141117E-3,7.957686E-2,1.05572656E-1,3.916779E-2,3.243598E-2,-2.8811214E-2,-7.893618E-2,-3.451829E-3,3.1757202E-2,1.0613336E-1,-1.4600264E-2,6.3887976E-2,3.9270323E-2,1.1809931E-1,7.399585E-2,1.5091935E-1,-5.0581682E-2,2.2966553E-2,4.3013435E-2,1.1373927E-1,-7.362311E-2,2.5217785E-2,-2.5918206E-2,7.2653055E-2,-6.7299746E-2,9.4066205E-4,-8.0049625E-3,1.23594776E-1,-6.1614968E-2,-1.16059415E-1,-7.24052E-2,2.3893131E-2],"split_indices":[929,2182,1031,4874,1376,1380,1068,3379,1408,4874,304,4363,1037,2227,2128,1803,2600,1031,1442,2295,1377,4363,4776,901,3379,2165,3379,4363,1452,967,1393,0,0,0,0,0,0,0,0,0,0,0,0,0,0,0,0,0,0,0,0,0,0,0,0,0,0,0,0,0,0,0,0],"split_type":[0,0,0,0,0,0,0,0,0,0,0,0,0,0,0,0,0,0,0,0,0,0,0,0,0,0,0,0,0,0,0,0,0,0,0,0,0,0,0,0,0,0,0,0,0,0,0,0,0,0,0,0,0,0,0,0,0,0,0,0,0,0,0],"sum_hessian":[2.7839752E4,1.5106345E4,1.2733408E4,1.099045E4,4.1158936E3,4.2725615E3,8.460847E3,5.4851904E3,5.50526E3,1.268855E3,2.8470388E3,2.734124E3,1.5384377E3,2.704477E3,5.75637E3,3.0968896E3,2.388301E3,3.0294768E3,2.4757832E3,5.8626636E2,6.825887E2,7.7027344E2,2.0767654E3,1.2633003E3,1.4708237E3,1.0779298E3,4.605079E2,2.3267522E3,3.7772473E2,4.731661E3,1.0247087E3,2.4430935E3,6.5379614E2,1.619339E3,7.6896204E2,2.0045793E3,1.0248973E3,1.8321356E3,6.436475E2,2.0164262E2,3.846237E2,4.9010553E2,1.9248312E2,3.6739853E2,4.0287494E2,2.1485248E2,1.8619128E3,3.585189E2,9.0478143E2,8.5256537E2,6.1825836E2,9.702553E2,1.076745E2,2.9257236E2,1.6793555E2,1.5662665E3,7.604858E2,1.7549791E2,2.0222682E2,1.1135708E3,3.6180903E3,6.0075665E2,4.2395206E2],"tree_param":{"num_deleted":"0","num_feature":"4890","num_nodes":"63","size_leaf_vector":"1"}},{"base_weights":[-2.4884262E-3,2.4012834E-1,-5.9183764E-1,-5.963886E-2,6.0599923E-1,-7.257965E-1,5.0856984E-1,1.6569E-1,-4.4324267E-1,2.1797214E-1,9.573701E-1,-8.393352E-1,1.2028984E-1,-3.907897E-2,1.2125067E0,-1.6450578E-1,4.2974976E-1,-6.2484837E-1,1.8921648E-1,4.0901232E-1,-2.1543464E-1,4.5273718E-1,1.2147399E0,-5.427946E-1,-1.060011E0,-2.1730043E-1,9.5263237E-1,-5.5539453E-1,6.228547E-1,4.95544E-1,1.528477E0,-3.8336433E-2,2.7463967E-2,6.39677E-2,5.839168E-3,-8.5721254E-2,-3.8158976E-2,-1.4879408E-2,8.414709E-2,1.9447329E-2,7.940459E-2,-4.803278E-2,1.4172303E-2,7.774047E-2,4.825728E-3,5.302183E-2,1.3141127E-1,-1.7643092E-2,-7.265045E-2,-1.1611668E-1,-4.1610487E-2,-4.8761487E-2,4.822296E-2,2.7268374E-2,1.4269248E-1,7.1735503E-3,-9.076411E-2,1.8967656E-2,1.4647226E-1,1.1130446E-1,-2.9119825E-2,1.5684599E-1,-1.3187914E-1],"categories":[],"categories_nodes":[],"categories_segments":[],"categories_sizes":[],"default_left":[0,0,0,0,0,0,0,0,0,0,0,0,0,0,0,0,0,0,0,0,0,0,0,0,0,0,0,0,0,0,0,0,0,0,0,0,0,0,0,0,0,0,0,0,0,0,0,0,0,0,0,0,0,0,0,0,0,0,0,0,0,0,0],"id":3,"left_children":[1,3,5,7,9,11,13,15,17,19,21,23,25,27,29,31,33,35,37,39,41,43,45,47,49,51,53,55,57,59,61,-1,-1,-1,-1,-1,-1,-1,-1,-1,-1,-1,-1,-1,-1,-1,-1,-1,-1,-1,-1,-1,-1,-1,-1,-1,-1,-1,-1,-1,-1,-1,-1],"loss_changes":[3.948219E3,2.1453313E3,1.187362E3,9.294705E2,1.2008193E3,6.8973E2,3.3716272E2,5.907279E2,4.5714404E2,3.4679907E2,5.9981396E2,4.1363232E2,2.3911925E2,1.687684E2,8.593121E1,2.8948425E2,2.9342578E2,1.7442493E2,1.9599696E2,2.39952E2,1.2133127E2,2.0520233E2,2.0749805E2,1.8177301E2,2.3582544E2,1.1477257E2,7.879288E1,6.1339714E1,7.864559E1,5.7910435E1,3.2251465E1,0E0,0E0,0E0,0E0,0E0,0E0,0E0,0E0,0E0,0E0,0E0,0E0,0E0,0E0,0E0,0E0,0E0,0E0,0E0,0E0,0E0,0E0,0E0,0E0,0E0,0E0,0E0,0E0,0E0,0E0,0E0,0E0],"parents":[2147483647,0,0,1,1,2,2,3,3,4,4,5,5,6,6,7,7,8,8,9,9,10,10,11,11,12,12,13,13,14,14,15,15,16,16,17,17,18,18,19,19,20,20,21,21,22,22,23,23,24,24,25,25,26,26,27,27,28,28,29,29,30,30],"right_children":[2,4,6,8,10,12,14,16,18,20,22,24,26,28,30,32,34,36,38,40,42,44,46,48,50,52,54,56,58,60,62,-1,-1,-1,-1,-1,-1,-1,-1,-1,-1,-1,-1,-1,-1,-1,-1,-1,-1,-1,-1,-1,-1,-1,-1,-1,-1,-1,-1,-1,-1,-1,-1],"split_conditions":[2.814821E-1,1.358209E-1,1.445287E-1,2.466948E-1,1.4551605E-1,2.8699306E-1,2.5543013E-1,1.9222578E-1,1.0841599E-1,1.7778569E2,-3.520212E1,2.840378E-1,8.50136E-2,1.4575975E-1,7.962476E-2,1.7501266E-1,1.19574584E-1,1.2284139E-1,2.6990116E-1,2.357925E-1,1.129654E-1,1.8696265E-1,-4.458817E2,1.9344607E-1,2.6571408E-1,1.331597E-1,5.934136E-2,1.5941167E-1,2.741583E-1,8.291769E0,3.115818E-1,-3.8336433E-2,2.7463967E-2,6.39677E-2,5.839168E-3,-8.5721254E-2,-3.8158976E-2,-1.4879408E-2,8.414709E-2,1.9447329E-2,7.940459E-2,-4.803278E-2,1.4172303E-2,7.774047E-2,4.825728E-3,5.302183E-2,1.3141127E-1,-1.7643092E-2,-7.265045E-2,-1.1611668E-1,-4.1610487E-2,-4.8761487E-2,4.822296E-2,2.7268374E-2,1.4269248E-1,7.1735503E-3,-9.076411E-2,1.8967656E-2,1.4647226E-1,1.1130446E-1,-2.9119825E-2,1.5684599E-1,-1.3187914E-1],"split_indices":[1371,4363,1036,1031,691,1803,2191,2509,1339,4778,4872,1382,1697,1802,1026,1355,2600,663,1804,3370,1396,994,4776,3360,2209,1356,1342,1381,1768,4684,3286,0,0,0,0,0,0,0,0,0,0,0,0,0,0,0,0,0,0,0,0,0,0,0,0,0,0,0,0,0,0,0,0],"split_type":[0,0,0,0,0,0,0,0,0,0,0,0,0,0,0,0,0,0,0,0,0,0,0,0,0,0,0,0,0,0,0,0,0,0,0,0,0,0,0,0,0,0,0,0,0,0,0,0,0,0,0,0,0,0,0,0,0,0,0,0,0,0,0],"sum_hessian":[2.7610633E4,1.955928E4,8.051355E3,1.0751304E4,8.807975E3,7.1778896E3,8.734654E2,6.7732593E3,3.9780442E3,4.186426E3,4.621549E3,6.32864E3,8.492496E2,4.9179962E2,3.8166577E2,3.0098916E3,3.7633677E3,3.0906113E3,8.874328E2,2.9056907E3,1.2807352E3,1.5618806E3,3.0596685E3,2.7016572E3,3.626983E3,6.0471985E2,2.4452972E2,2.7638065E2,2.1541898E2,1.1753576E2,2.6413E2,2.0088569E3,1.00103455E3,2.4037917E3,1.359576E3,1.579411E3,1.5112003E3,5.850307E2,3.0240213E2,1.8669432E3,1.0387476E3,7.351509E2,5.455843E2,8.6591046E2,6.959701E2,3.8867166E2,2.6709968E3,9.029361E2,1.7987212E3,3.1338596E3,4.931232E2,4.363912E2,1.6832863E2,1.01127525E2,1.4340219E2,9.9690605E1,1.7669003E2,1.4304257E2,7.237641E1,6.561831E1,5.1917454E1,2.6091522E2,3.2147815E0],"tree_param":{"num_deleted":"0","num_feature":"4890","num_nodes":"63","size_leaf_vector":"1"}},{"base_weights":[-1.4035054E-3,4.2202783E-1,-2.947632E-1,-9.046464E-3,6.999735E-1,7.214159E-2,-6.117446E-1,3.1522387E-1,-2.7475503E-1,2.2983003E-1,9.5646626E-1,4.5564464E-1,-2.6025537E-1,-8.827078E-2,-7.635856E-1,7.697083E-3,6.732837E-1,-6.2204912E-2,-6.264529E-1,5.170741E-1,-1.11088514E-1,6.252368E-1,1.2102435E0,1.2444911E-1,7.5410914E-1,-4.5384416E-1,1.4409696E-1,2.2504957E-1,-5.518587E-1,-9.961618E-1,-5.146723E-1,-2.9003737E-2,4.5016795E-2,8.093106E-2,-2.0585319E-2,4.9555143E-3,-8.105421E-2,-6.397918E-3,-7.7799425E-2,7.69464E-2,1.4185998E-2,2.3474745E-2,-3.9158646E-2,1.301784E-2,8.335822E-2,8.806452E-2,1.3980225E-1,3.0602498E-2,-4.2892274E-2,1.0135305E-1,4.0487323E-2,-5.4154705E-2,4.3120544E-2,-2.0610318E-3,1.0544991E-1,6.071539E-3,1.1405822E-1,5.9183156E-3,-6.857576E-2,-1.09659486E-1,-2.72578E-2,-6.28316E-2,2.0450925E-2],"categories":[],"categories_nodes":[],"categories_segments":[],"categories_sizes":[],"default_left":[0,0,0,0,0,0,0,0,0,0,0,0,0,0,0,0,0,0,0,0,0,0,0,0,0,0,0,0,0,0,0,0,0,0,0,0,0,0,0,0,0,0,0,0,0,0,0,0,0,0,0,0,0,0,0,0,0,0,0,0,0,0,0],"id":4,"left_children":[1,3,5,7,9,11,13,15,17,19,21,23,25,27,29,31,33,35,37,39,41,43,45,47,49,51,53,55,57,59,61,-1,-1,-1,-1,-1,-1,-1,-1,-1,-1,-1,-1,-1,-1,-1,-1,-1,-1,-1,-1,-1,-1,-1,-1,-1,-1,-1,-1,-1,-1,-1,-1],"loss_changes":[3.414338E3,1.3478611E3,1.8884728E3,3.8013815E2,8.2454614E2,9.596095E2,6.9235693E2,2.1879068E2,1.8123155E2,2.366069E2,3.711975E2,3.4540118E2,3.1574036E2,2.8479468E2,3.9040186E2,1.4108415E2,1.0995459E2,1.2654255E2,7.7802E1,1.240585E2,1.0732349E2,1.9809332E2,1.5376562E2,1.6671796E2,1.6613074E2,2.1193384E2,1.9591528E2,1.7598624E2,6.473216E1,2.5330835E2,2.668797E2,0E0,0E0,0E0,0E0,0E0,0E0,0E0,0E0,0E0,0E0,0E0,0E0,0E0,0E0,0E0,0E0,0E0,0E0,0E0,0E0,0E0,0E0,0E0,0E0,0E0,0E0,0E0,0E0,0E0,0E0,0E0,0E0],"parents":[2147483647,0,0,1,1,2,2,3,3,4,4,5,5,6,6,7,7,8,8,9,9,10,10,11,11,12,12,13,13,14,14,15,15,16,16,17,17,18,18,19,19,20,20,21,21,22,22,23,23,24,24,25,25,26,26,27,27,28,28,29,29,30,30],"right_children":[2,4,6,8,10,12,14,16,18,20,22,24,26,28,30,32,34,36,38,40,42,44,46,48,50,52,54,56,58,60,62,-1,-1,-1,-1,-1,-1,-1,-1,-1,-1,-1,-1,-1,-1,-1,-1,-1,-1,-1,-1,-1,-1,-1,-1,-1,-1,-1,-1,-1,-1,-1,-1],"split_conditions":[1.8355215E-1,9.520325E-2,1.9391188E-1,-2.678953E1,-4.991945E1,1.9755048E-1,1.7086498E-1,2.5067732E-1,2.1283545E-1,5.266249E-2,1.6990851E-1,2.3934366E-1,1.4023529E-1,9.358287E1,8.048185E-2,2.4591294E-1,2.9820302E-1,2.9754332E-1,1.02004E-1,2.2586799E-1,1.679234E-1,-2.732781E2,7.2057575E-2,2.1800262E-1,2.4399076E-1,2.6248077E-1,1.17938094E-1,2.65681E-1,1.0311415E-1,2.695872E-1,2.68969E-1,-2.9003737E-2,4.5016795E-2,8.093106E-2,-2.0585319E-2,4.9555143E-3,-8.105421E-2,-6.397918E-3,-7.7799425E-2,7.69464E-2,1.4185998E-2,2.3474745E-2,-3.9158646E-2,1.301784E-2,8.335822E-2,8.806452E-2,1.3980225E-1,3.0602498E-2,-4.2892274E-2,1.0135305E-1,4.0487323E-2,-5.4154705E-2,4.3120544E-2,-2.0610318E-3,1.0544991E-1,6.071539E-3,1.1405822E-1,5.9183156E-3,-6.857576E-2,-1.09659486E-1,-2.72578E-2,-6.28316E-2,2.0450925E-2],"split_indices":[929,505,1381,4778,4872,1032,1068,2956,1371,4359,3370,2509,4363,4874,1771,2509,1372,1373,1041,967,1031,4776,971,1380,3387,2193,1414,1775,967,2164,2128,0,0,0,0,0,0,0,0,0,0,0,0,0,0,0,0,0,0,0,0,0,0,0,0,0,0,0,0,0,0,0,0],"split_type":[0,0,0,0,0,0,0,0,0,0,0,0,0,0,0,0,0,0,0,0,0,0,0,0,0,0,0,0,0,0,0,0,0,0,0,0,0,0,0,0,0,0,0,0,0,0,0,0,0,0,0,0,0,0,0,0,0,0,0,0,0,0,0],"sum_hessian":[2.7484729E4,1.1248442E4,1.6236285E4,4.4099253E3,6.8385176E3,7.52588E3,8.710405E3,1.9860123E3,2.4239128E3,2.4145735E3,4.4239443E3,3.494142E3,4.0317378E3,1.9588447E3,6.7515605E3,1.0689473E3,9.170651E2,1.5115674E3,9.1234546E2,1.310165E3,1.1044084E3,1.9206191E3,2.503325E3,1.6569261E3,1.8372158E3,2.7263438E3,1.3053939E3,1.1691667E3,7.89678E2,3.4887698E3,3.262791E3,6.391881E2,4.297591E2,7.942517E2,1.22813385E2,1.3159685E3,1.9559889E2,1.9393646E2,7.18409E2,7.826562E2,5.2750885E2,4.946723E2,6.097361E2,5.6936115E2,1.351258E3,9.1063184E2,1.5926931E3,1.2479033E3,4.0902292E2,1.0530679E3,7.841479E2,2.480891E3,2.4545279E2,1.1062345E3,1.9915936E2,9.92147E2,1.7701979E2,1.4204045E2,6.476375E2,3.0630984E3,4.256715E2,2.8176738E3,4.4511703E2],"tree_param":{"num_deleted":"0","num_feature":"4890","num_nodes":"63","size_leaf_vector":"1"}},{"base_weights":[-8.351854E-4,2.8995368E-1,-3.7573972E-1,5.876787E-1,-2.8061077E-3,-5.3664225E-1,4.1015708E-1,2.1242553E-1,8.1721795E-1,1.7439476E-1,-3.4605098E-1,-6.336219E-1,2.336802E-1,-1.2491642E-1,8.7321633E-1,4.5664838E-1,-1.3154456E-1,3.7729296E-1,1.0322348E0,-9.945461E-2,4.1176924E-1,-5.8354884E-1,1.3016632E-1,-4.120054E-1,-8.8333935E-1,-6.516691E-2,1.0012196E0,-4.2970014E-1,5.4843193E-1,4.646373E-1,1.3938866E0,1.2621331E-2,7.4483156E-2,-3.6944766E-2,3.5669815E-2,6.49546E-2,-2.1070667E-2,7.96328E-2,1.3305762E-1,6.9863023E-3,-4.5309503E-2,2.7254075E-2,9.272301E-2,-6.841087E-2,1.249448E-2,-2.6269836E-2,5.0558962E-2,-6.07641E-2,-1.0098026E-2,-9.916059E-2,-2.117036E-2,-5.03692E-2,4.9682938E-2,1.289368E-1,3.696957E-2,1.823963E-2,-6.1554678E-2,-4.706638E-2,1.03885554E-1,-6.420325E-3,8.899891E-2,1.4714988E-1,5.765104E-2],"categories":[],"categories_nodes":[],"categories_segments":[],"categories_sizes":[],"default_left":[0,0,0,0,0,0,0,0,0,0,0,0,0,0,0,0,0,0,0,0,0,0,0,0,0,0,0,0,0,0,0,0,0,0,0,0,0,0,0,0,0,0,0,0,0,0,0,0,0,0,0,0,0,0,0,0,0,0,0,0,0,0,0],"id":5,"left_children":[1,3,5,7,9,11,13,15,17,19,21,23,25,27,29,31,33,35,37,39,41,43,45,47,49,51,53,55,57,59,61,-1,-1,-1,-1,-1,-1,-1,-1,-1,-1,-1,-1,-1,-1,-1,-1,-1,-1,-1,-1,-1,-1,-1,-1,-1,-1,-1,-1,-1,-1,-1,-1],"loss_changes":[2.970601E3,1.3375793E3,1.5053632E3,6.5518164E2,4.707392E2,7.382715E2,5.0144168E2,2.4275252E2,4.4612158E2,3.318481E2,2.9810965E2,4.8530737E2,2.5364981E2,1.9305934E2,2.3012799E2,1.6080829E2,1.3955417E2,2.4847426E2,2.2205688E2,1.4199445E2,1.959909E2,1.2536688E2,1.2958347E2,2.829671E2,2.9977612E2,1.965859E2,5.5912933E1,7.375365E1,1.4703046E2,1.3712172E2,2.9378418E1,0E0,0E0,0E0,0E0,0E0,0E0,0E0,0E0,0E0,0E0,0E0,0E0,0E0,0E0,0E0,0E0,0E0,0E0,0E0,0E0,0E0,0E0,0E0,0E0,0E0,0E0,0E0,0E0,0E0,0E0,0E0,0E0],"parents":[2147483647,0,0,1,1,2,2,3,3,4,4,5,5,6,6,7,7,8,8,9,9,10,10,11,11,12,12,13,13,14,14,15,15,16,16,17,17,18,18,19,19,20,20,21,21,22,22,23,23,24,24,25,25,26,26,27,27,28,28,29,29,30,30],"right_children":[2,4,6,8,10,12,14,16,18,20,22,24,26,28,30,32,34,36,38,40,42,44,46,48,50,52,54,56,58,60,62,-1,-1,-1,-1,-1,-1,-1,-1,-1,-1,-1,-1,-1,-1,-1,-1,-1,-1,-1,-1,-1,-1,-1,-1,-1,-1,-1,-1,-1,-1,-1,-1],"split_conditions":[2.4707393E-1,-3.9350327E1,1.24813944E-1,2.0186147E-1,2.278425E-1,2.8699306E-1,2.4864347E1,1.7244694E-1,-7.6131905E1,1.24196716E-1,1.5586077E-1,2.7644637E-1,7.008311E-2,1.9203888E-1,2.6452634E-1,2.2957107E-1,1.6626497E-1,2.3965308E-1,2.0716141E-1,5.534812E-2,2.137952E-1,2.6272994E-1,5.8742223E0,1.3565892E-1,2.6628688E-1,1.0216689E-1,1.8163738E-1,1.221666E-1,1.1972186E-1,1.3368878E-1,2.0152934E-1,1.2621331E-2,7.4483156E-2,-3.6944766E-2,3.5669815E-2,6.49546E-2,-2.1070667E-2,7.96328E-2,1.3305762E-1,6.9863023E-3,-4.5309503E-2,2.7254075E-2,9.272301E-2,-6.841087E-2,1.249448E-2,-2.6269836E-2,5.0558962E-2,-6.07641E-2,-1.0098026E-2,-9.916059E-2,-2.117036E-2,-5.03692E-2,4.9682938E-2,1.289368E-1,3.696957E-2,1.823963E-2,-6.1554678E-2,-4.706638E-2,1.03885554E-1,-6.420325E-3,8.899891E-2,1.4714988E-1,5.765104E-2],"split_indices":[1371,4778,1037,2509,967,1803,4872,967,4872,3370,231,1382,1339,2254,664,2956,294,968,959,4359,109,1775,4872,4363,2128,1356,1438,1691,3379,4363,3285,0,0,0,0,0,0,0,0,0,0,0,0,0,0,0,0,0,0,0,0,0,0,0,0,0,0,0,0,0,0,0,0],"split_type":[0,0,0,0,0,0,0,0,0,0,0,0,0,0,0,0,0,0,0,0,0,0,0,0,0,0,0,0,0,0,0,0,0,0,0,0,0,0,0,0,0,0,0,0,0,0,0,0,0,0,0,0,0,0,0,0,0,0,0,0,0,0,0],"sum_hessian":[2.7246705E4,1.53449E4,1.1901806E4,7.6074355E3,7.737465E3,9.879433E3,2.022373E3,2.888011E3,4.7194243E3,5.103344E3,2.63412E3,8.7748955E3,1.1045366E3,9.385693E2,1.0838038E3,1.688692E3,1.199319E3,1.5502877E3,3.1691367E3,2.3698848E3,2.7334597E3,1.7574325E3,8.766877E2,4.6504316E3,4.1244644E3,7.956568E2,3.0887976E2,6.463623E2,2.9220694E2,6.0832947E2,4.754744E2,7.8734674E2,9.0134534E2,8.0655646E2,3.9276257E2,1.0595806E3,4.9070703E2,1.7717963E3,1.3973403E3,1.6031321E3,7.6675275E2,2.1533562E3,5.8010333E2,1.5390256E3,2.1840683E2,4.2853946E2,4.4814825E2,2.8541868E3,1.7962446E3,3.5514932E3,5.7297125E2,4.4698145E2,3.4867538E2,2.1138739E2,9.749236E1,1.5054672E2,4.958156E2,9.49474E1,1.9725954E2,2.7155444E2,3.36775E2,4.3351102E2,4.196336E1],"tree_param":{"num_deleted":"0","num_feature":"4890","num_nodes":"63","size_leaf_vector":"1"}},{"base_weights":[2.934361E-3,-1.5077437E-1,6.2960184E-1,1.12855926E-1,-4.852874E-1,1.8768471E-1,9.5244217E-1,-8.3570205E-2,4.534073E-1,-2.110798E-1,-7.5992095E-1,-1.2633146E-1,4.8640525E-1,5.2878714E-1,1.1665907E0,1.2772682E-1,-3.7480304E-1,1.8752687E-1,8.915322E-1,-3.606406E-1,2.9705396E-1,-8.5110915E-1,-3.3395663E-2,-2.9040137E-1,5.7169515E-1,-9.683971E-2,6.9103754E-1,1.2588381E-2,7.4844766E-1,6.779726E-1,1.2777658E0,2.7583703E-2,-2.6099918E-2,-6.317321E-2,-8.030244E-3,3.658525E-2,-1.9132147E-2,6.0548466E-2,1.2432548E-1,-1.8494384E-2,-6.728255E-2,2.9413148E-3,9.648547E-2,-9.21973E-2,-5.9316596E-3,-5.3392697E-2,4.1861292E-2,-5.824418E-2,3.313457E-4,1.1685407E-2,1.24226764E-1,1.7546615E-2,-5.885906E-2,4.267705E-2,1.1285235E-1,-2.6822153E-2,5.4522317E-2,1.08935356E-1,3.9190616E-2,9.89959E-3,1.00581944E-1,9.5963486E-2,1.3781212E-1],"categories":[],"categories_nodes":[],"categories_segments":[],"categories_sizes":[],"default_left":[0,0,0,0,0,0,0,0,0,0,0,0,0,0,0,0,0,0,0,0,0,0,0,0,0,0,0,0,0,0,0,0,0,0,0,0,0,0,0,0,0,0,0,0,0,0,0,0,0,0,0,0,0,0,0,0,0,0,0,0,0,0,0],"id":6,"left_children":[1,3,5,7,9,11,13,15,17,19,21,23,25,27,29,31,33,35,37,39,41,43,45,47,49,51,53,55,57,59,61,-1,-1,-1,-1,-1,-1,-1,-1,-1,-1,-1,-1,-1,-1,-1,-1,-1,-1,-1,-1,-1,-1,-1,-1,-1,-1,-1,-1,-1,-1,-1,-1],"loss_changes":[2.6021667E3,1.9131704E3,7.5896216E2,8.1165564E2,7.198928E2,2.1088333E2,2.7831885E2,4.7361066E2,5.1685876E2,3.6382104E2,3.164314E2,1.2574162E2,1.3755963E2,1.17248535E2,1.1002637E2,2.5688885E2,2.4480429E2,1.8676309E2,1.6786682E2,2.0271231E2,1.9458633E2,2.3807349E2,1.20974976E2,7.621222E1,6.36053E1,4.028638E1,9.812735E1,4.646972E1,8.7744934E1,7.212773E1,5.1734863E1,0E0,0E0,0E0,0E0,0E0,0E0,0E0,0E0,0E0,0E0,0E0,0E0,0E0,0E0,0E0,0E0,0E0,0E0,0E0,0E0,0E0,0E0,0E0,0E0,0E0,0E0,0E0,0E0,0E0,0E0,0E0,0E0],"parents":[2147483647,0,0,1,1,2,2,3,3,4,4,5,5,6,6,7,7,8,8,9,9,10,10,11,11,12,12,13,13,14,14,15,15,16,16,17,17,18,18,19,19,20,20,21,21,22,22,23,23,24,24,25,25,26,26,27,27,28,28,29,29,30,30],"right_children":[2,4,6,8,10,12,14,16,18,20,22,24,26,28,30,32,34,36,38,40,42,44,46,48,50,52,54,56,58,60,62,-1,-1,-1,-1,-1,-1,-1,-1,-1,-1,-1,-1,-1,-1,-1,-1,-1,-1,-1,-1,-1,-1,-1,-1,-1,-1,-1,-1,-1,-1,-1,-1],"split_conditions":[2.6515502E-1,2.4728289E-1,6.466466E-2,1.5766022E-1,2.6912528E-1,4.672904E-2,1.939158E-1,2.3000248E-1,2.3512316E-1,1.0841599E-1,2.6785088E-1,2.823502E-1,1.372693E-1,1.5976264E-1,5.2645635E-2,1.8999611E2,7.02048E-2,1.6571324E2,1.6075313E-1,1.4270175E-1,2.6990116E-1,2.802487E-1,1.3261004E-1,1.0880963E-1,1.0667891E-1,2.5785E-1,1.2930085E-1,1.1769073E-1,2.187387E-1,5.2639168E-2,-3.2021667E2,2.7583703E-2,-2.6099918E-2,-6.317321E-2,-8.030244E-3,3.658525E-2,-1.9132147E-2,6.0548466E-2,1.2432548E-1,-1.8494384E-2,-6.728255E-2,2.9413148E-3,9.648547E-2,-9.21973E-2,-5.9316596E-3,-5.3392697E-2,4.1861292E-2,-5.824418E-2,3.313457E-4,1.1685407E-2,1.24226764E-1,1.7546615E-2,-5.885906E-2,4.267705E-2,1.1285235E-1,-2.6822153E-2,5.4522317E-2,1.08935356E-1,3.9190616E-2,9.89959E-3,1.00581944E-1,9.5963486E-2,1.3781212E-1],"split_indices":[2182,1382,1338,2904,1371,1377,2295,966,3379,1339,2209,2220,3034,2887,1379,4778,1734,4778,2226,2565,1804,1776,1397,1051,1357,1561,1849,2295,3325,1348,4586,0,0,0,0,0,0,0,0,0,0,0,0,0,0,0,0,0,0,0,0,0,0,0,0,0,0,0,0,0,0,0,0],"split_type":[0,0,0,0,0,0,0,0,0,0,0,0,0,0,0,0,0,0,0,0,0,0,0,0,0,0,0,0,0,0,0,0,0,0,0,0,0,0,0,0,0,0,0,0,0,0,0,0,0,0,0,0,0,0,0,0,0,0,0,0,0,0,0],"sum_hessian":[2.701267E4,2.1692662E4,5.3200073E3,1.2132041E4,9.56062E3,2.2464944E3,3.073513E3,7.694624E3,4.437417E3,4.784906E3,4.775715E3,1.0954891E3,1.1510054E3,1.0331259E3,2.0403872E3,4.459617E3,3.235007E3,2.7624346E3,1.6749824E3,3.697035E3,1.0878708E3,4.2429937E3,5.327213E2,8.8747394E2,2.0801521E2,2.9908295E2,8.5192236E2,3.0871283E2,7.24413E2,3.7951288E2,1.6608743E3,3.229443E3,1.230174E3,1.7271002E3,1.5079067E3,1.8783303E3,8.841042E2,9.252336E2,7.4974884E2,2.3666716E3,1.3303633E3,7.773636E2,3.105073E2,3.8942976E3,3.4869604E2,2.5270616E2,2.8001514E2,4.4451248E2,4.4296146E2,1.24644585E2,8.337063E1,1.929053E2,1.0617765E2,5.323359E2,3.1958652E2,2.0246689E2,1.0624595E2,3.6927585E2,3.5513715E2,1.376772E2,2.4183568E2,4.0082043E2,1.2600538E3],"tree_param":{"num_deleted":"0","num_feature":"4890","num_nodes":"63","size_leaf_vector":"1"}},{"base_weights":[9.1049244E-4,2.8617764E-1,-3.080086E-1,-6.642418E-2,5.750152E-1,5.6399953E-2,-5.894525E-1,1.4089437E-1,-3.6075595E-1,1.8092108E-1,8.48151E-1,3.860875E-1,-3.1442362E-1,-6.616776E-1,2.8112108E-1,-1.5537317E-1,3.7109968E-1,-1.4890662E-1,-6.406607E-1,-5.3177457E-2,5.0004464E-1,4.4663554E-1,1.0400249E0,2.0242278E-1,9.41808E-1,-5.00395E-1,1.1194442E-1,-7.485348E-1,-9.294501E-2,6.6989094E-1,-3.0045253E-1,-3.7855472E-2,1.3640898E-2,5.4482825E-2,-9.536512E-3,-3.823462E-4,-7.150413E-2,-3.0755857E-2,-8.491819E-2,4.860806E-3,-6.436654E-2,2.9169694E-2,1.0444807E-1,5.8716703E-2,-9.997104E-3,6.1235752E-2,1.1881584E-1,3.7232157E-2,-1.6843688E-2,1.1226334E-1,3.2654367E-2,-6.1249405E-2,6.3698078E-3,-1.8518915E-2,4.6462435E-2,-9.0991475E-2,-4.444225E-2,-5.042232E-2,3.903356E-2,1.049274E-1,2.5143234E-2,-6.489288E-2,3.214969E-2],"categories":[],"categories_nodes":[],"categories_segments":[],"categories_sizes":[],"default_left":[0,0,0,0,0,0,0,0,0,0,0,0,0,0,0,0,0,0,0,0,0,0,0,0,0,0,0,0,0,0,0,0,0,0,0,0,0,0,0,0,0,0,0,0,0,0,0,0,0,0,0,0,0,0,0,0,0,0,0,0,0,0,0],"id":7,"left_children":[1,3,5,7,9,11,13,15,17,19,21,23,25,27,29,31,33,35,37,39,41,43,45,47,49,51,53,55,57,59,61,-1,-1,-1,-1,-1,-1,-1,-1,-1,-1,-1,-1,-1,-1,-1,-1,-1,-1,-1,-1,-1,-1,-1,-1,-1,-1,-1,-1,-1,-1,-1,-1],"loss_changes":[2.3598293E3,1.4179346E3,1.3185745E3,3.8264795E2,8.236426E2,6.851558E2,4.562937E2,2.5100739E2,1.5357422E2,2.3416785E2,3.4775854E2,3.0260013E2,2.0920294E2,3.3082788E2,1.2600342E2,1.0486918E2,1.6787341E2,1.21261566E2,7.72634E1,1.0874736E2,1.501434E2,1.1246335E2,1.929834E2,1.4063318E2,8.158838E1,1.1618631E2,8.4119064E1,2.8478125E2,1.7681958E2,5.272737E1,4.8673714E1,0E0,0E0,0E0,0E0,0E0,0E0,0E0,0E0,0E0,0E0,0E0,0E0,0E0,0E0,0E0,0E0,0E0,0E0,0E0,0E0,0E0,0E0,0E0,0E0,0E0,0E0,0E0,0E0,0E0,0E0,0E0,0E0],"parents":[2147483647,0,0,1,1,2,2,3,3,4,4,5,5,6,6,7,7,8,8,9,9,10,10,11,11,12,12,13,13,14,14,15,15,16,16,17,17,18,18,19,19,20,20,21,21,22,22,23,23,24,24,25,25,26,26,27,27,28,28,29,29,30,30],"right_children":[2,4,6,8,10,12,14,16,18,20,22,24,26,28,30,32,34,36,38,40,42,44,46,48,50,52,54,56,58,60,62,-1,-1,-1,-1,-1,-1,-1,-1,-1,-1,-1,-1,-1,-1,-1,-1,-1,-1,-1,-1,-1,-1,-1,-1,-1,-1,-1,-1,-1,-1,-1,-1],"split_conditions":[2.482432E-1,2.1414782E-1,1.9309686E-1,8.092817E1,-2.1952843E2,2.3544642E-1,2.96612E-1,9.922112E-2,1.4660843E-1,1.9606587E-1,1.2989141E-1,2.7924827E-1,1.415608E-1,2.6571408E-1,1.3177655E2,1.5424551E-1,5.6429032E-2,2.97374E-1,1.4947519E-1,3.1826222E-1,2.1332085E-1,2.1991661E-1,1.0238508E-1,1.3900648E2,2.0113923E-1,2.6316386E-1,1.01606615E-1,8.866783E-2,1.03937976E-1,1.8472144E-1,2.8830373E-1,-3.7855472E-2,1.3640898E-2,5.4482825E-2,-9.536512E-3,-3.823462E-4,-7.150413E-2,-3.0755857E-2,-8.491819E-2,4.860806E-3,-6.436654E-2,2.9169694E-2,1.0444807E-1,5.8716703E-2,-9.997104E-3,6.1235752E-2,1.1881584E-1,3.7232157E-2,-1.6843688E-2,1.1226334E-1,3.2654367E-2,-6.1249405E-2,6.3698078E-3,-1.8518915E-2,4.6462435E-2,-9.0991475E-2,-4.444225E-2,-5.042232E-2,3.903356E-2,1.049274E-1,2.5143234E-2,-6.489288E-2,3.214969E-2],"split_indices":[1068,2509,1372,4874,4776,992,1803,691,2105,3379,4363,1804,4363,2209,4874,3379,4359,1372,994,994,2254,1826,3379,4778,968,2164,1771,1734,1396,2948,2200,0,0,0,0,0,0,0,0,0,0,0,0,0,0,0,0,0,0,0,0,0,0,0,0,0,0,0,0,0,0,0,0],"split_type":[0,0,0,0,0,0,0,0,0,0,0,0,0,0,0,0,0,0,0,0,0,0,0,0,0,0,0,0,0,0,0,0,0,0,0,0,0,0,0,0,0,0,0,0,0,0,0,0,0,0,0,0,0,0,0,0,0,0,0,0,0,0,0],"sum_hessian":[2.6776367E4,1.3921147E4,1.285522E4,6.2689834E3,7.652164E3,5.6022827E3,7.2529365E3,3.6784873E3,2.5904958E3,3.133154E3,4.51901E3,2.9656106E3,2.636672E3,6.6975317E3,5.554047E2,1.6085961E3,2.0698914E3,1.4753734E3,1.1151224E3,1.8078259E3,1.3253282E3,1.4623083E3,3.0567014E3,2.2299727E3,7.3563806E2,1.8357771E3,8.0089496E2,5.809921E3,8.8761096E2,3.3278983E2,2.2261493E2,9.112736E2,6.9732245E2,1.5080647E3,5.618266E2,1.1752095E3,3.0016382E2,4.3026724E2,6.848552E2,1.5428026E3,2.6502332E2,9.5962823E2,3.6569995E2,1.1631823E3,2.9912607E2,7.877037E2,2.2689978E3,1.5293435E3,7.006291E2,5.679065E2,1.677316E2,1.5313707E3,3.0440637E2,4.3493567E2,3.659593E2,3.7943977E3,2.0155234E3,4.7950363E2,4.081073E2,1.7375372E2,1.5903609E2,1.4264694E2,7.9967995E1],"tree_param":{"num_deleted":"0","num_feature":"4890","num_nodes":"63","size_leaf_vector":"1"}},{"base_weights":[2.6941635E-3,3.2330117E-1,-2.4405651E-1,4.997289E-3,6.052994E-1,2.3310322E-2,-5.238058E-1,-2.6450744E-1,2.9463202E-1,9.1811657E-1,2.9807624E-1,2.2869073E-1,-3.1808686E-1,-3.546972E-1,-8.1802756E-1,-5.2832033E-2,-5.810377E-1,4.784436E-1,-1.8336777E-1,5.358624E-1,1.0886179E0,1.262639E-1,9.405519E-1,-8.071003E-2,4.4478473E-1,-4.115977E-1,5.3790075E-1,-5.132296E-1,2.380973E-2,-8.7137127E-1,-4.9981825E-2,9.157952E-3,-5.165208E-2,-3.4573507E-2,-9.6045904E-2,2.6062954E-2,8.673144E-2,8.49596E-3,-5.4615702E-2,1.18838595E-2,7.913386E-2,6.1906327E-2,1.18189804E-1,3.4899402E-2,-3.5924453E-2,-3.2681062E-6,1.11578204E-1,-2.8712606E-2,3.6869343E-2,2.858143E-2,8.326154E-2,-5.2157726E-2,1.371733E-2,-3.1756338E-2,8.913464E-2,-6.508345E-2,-1.9365806E-2,4.5415875E-2,-3.3957254E-2,-1.173357E-1,-7.527085E-2,-4.6507798E-2,8.561143E-2],"categories":[],"categories_nodes":[],"categories_segments":[],"categories_sizes":[],"default_left":[0,0,0,0,0,0,0,0,0,0,0,0,0,0,0,0,0,0,0,0,0,0,0,0,0,0,0,0,0,0,0,0,0,0,0,0,0,0,0,0,0,0,0,0,0,0,0,0,0,0,0,0,0,0,0,0,0,0,0,0,0,0,0],"id":8,"left_children":[1,3,5,7,9,11,13,15,17,19,21,23,25,27,29,31,33,35,37,39,41,43,45,47,49,51,53,55,57,59,61,-1,-1,-1,-1,-1,-1,-1,-1,-1,-1,-1,-1,-1,-1,-1,-1,-1,-1,-1,-1,-1,-1,-1,-1,-1,-1,-1,-1,-1,-1,-1,-1],"loss_changes":[2.1035981E3,1.0380535E3,1.1239033E3,4.2421564E2,5.8904297E2,5.3885126E2,3.6506787E2,1.885891E2,2.3023991E2,1.9740967E2,3.4154092E2,3.208529E2,2.3128522E2,2.7992236E2,1.0973059E2,1.1308555E2,1.00379425E2,1.6004785E2,7.0939476E1,9.9949066E1,9.124194E1,2.6433118E2,1.0761249E2,1.8322493E2,1.739541E2,1.5717053E2,8.63738E1,1.4445197E2,2.1564293E2,8.889209E1,6.624357E1,0E0,0E0,0E0,0E0,0E0,0E0,0E0,0E0,0E0,0E0,0E0,0E0,0E0,0E0,0E0,0E0,0E0,0E0,0E0,0E0,0E0,0E0,0E0,0E0,0E0,0E0,0E0,0E0,0E0,0E0,0E0,0E0],"parents":[2147483647,0,0,1,1,2,2,3,3,4,4,5,5,6,6,7,7,8,8,9,9,10,10,11,11,12,12,13,13,14,14,15,15,16,16,17,17,18,18,19,19,20,20,21,21,22,22,23,23,24,24,25,25,26,26,27,27,28,28,29,29,30,30],"right_children":[2,4,6,8,10,12,14,16,18,20,22,24,26,28,30,32,34,36,38,40,42,44,46,48,50,52,54,56,58,60,62,-1,-1,-1,-1,-1,-1,-1,-1,-1,-1,-1,-1,-1,-1,-1,-1,-1,-1,-1,-1,-1,-1,-1,-1,-1,-1,-1,-1,-1,-1,-1,-1],"split_conditions":[-2.3719576E1,2.3211569E-1,2.3967406E-1,2.0186147E-1,2.0862646E-1,2.0415416E-1,1.3761134E-1,2.4151348E-1,1.4476556E-1,1.3106106E-1,2.7667078E-1,2.1469688E-1,2.6355E-1,2.4859059E-1,2.6887828E-1,2.4668491E-1,2.6072767E-1,2.1611722E-1,1.656387E-1,5.7374004E-2,2.7086334E-2,2.786765E-1,-4.2931158E2,2.1589981E-1,2.6947144E-1,2.6692212E-1,3.4539253E-2,2.1589981E-1,1.9730498E-1,5.749097E-2,8.047383E-2,9.157952E-3,-5.165208E-2,-3.4573507E-2,-9.6045904E-2,2.6062954E-2,8.673144E-2,8.49596E-3,-5.4615702E-2,1.18838595E-2,7.913386E-2,6.1906327E-2,1.18189804E-1,3.4899402E-2,-3.5924453E-2,-3.2681062E-6,1.11578204E-1,-2.8712606E-2,3.6869343E-2,2.858143E-2,8.326154E-2,-5.2157726E-2,1.371733E-2,-3.1756338E-2,8.913464E-2,-6.508345E-2,-1.9365806E-2,4.5415875E-2,-3.3957254E-2,-1.173357E-1,-7.527085E-2,-4.6507798E-2,8.561143E-2],"split_indices":[4874,2656,966,2509,1898,1373,2600,1372,2600,4363,628,2956,1416,3379,2182,1727,1323,3406,1794,990,960,3361,4776,506,2200,2128,1000,506,3387,1802,1339,0,0,0,0,0,0,0,0,0,0,0,0,0,0,0,0,0,0,0,0,0,0,0,0,0,0,0,0,0,0,0,0],"split_type":[0,0,0,0,0,0,0,0,0,0,0,0,0,0,0,0,0,0,0,0,0,0,0,0,0,0,0,0,0,0,0,0,0,0,0,0,0,0,0,0,0,0,0,0,0,0,0,0,0,0,0,0,0,0,0,0,0,0,0,0,0,0,0],"sum_hessian":[2.6588805E4,1.1563655E4,1.5025149E4,5.432627E3,6.131029E3,7.68307E3,7.342079E3,2.8141504E3,2.6184766E3,3.0368718E3,3.0941567E3,4.7973643E3,2.8857058E3,4.6637314E3,2.678348E3,1.6870948E3,1.1270555E3,1.89122E3,7.2725665E2,9.380223E2,2.0988496E3,2.442243E3,6.5191376E2,1.9730302E3,2.824334E3,2.6019768E3,2.8372916E2,3.2867607E3,1.3769706E3,2.5042815E3,1.740663E2,1.2870558E3,4.0003903E2,6.968234E2,4.302321E2,1.2132983E3,6.779216E2,4.1849432E2,3.0876236E2,3.569021E2,5.811202E2,3.4911346E2,1.7497362E3,1.674388E3,7.6785504E2,1.0253509E2,5.4937866E2,1.3522759E3,6.207543E2,2.0044528E3,8.198812E2,2.1676135E3,4.3436328E2,8.29828E1,2.0074635E2,2.2967585E3,9.900022E2,6.302837E2,7.466868E2,7.039377E2,1.8003439E3,1.1971143E2,5.435487E1],"tree_param":{"num_deleted":"0","num_feature":"4890","num_nodes":"63","size_leaf_vector":"1"}},{"base_weights":[-7.117754E-4,-1.8591538E-1,3.7868863E-1,9.997752E-2,-4.754157E-1,1.1058172E-1,7.7430856E-1,3.0930534E-1,-2.1489044E-1,-6.036532E-1,-3.2459337E-2,-9.3775466E-2,5.092323E-1,2.8523234E-1,9.962113E-1,4.4706163E-1,-1.2080001E-1,-3.548939E-1,3.2060966E-1,-8.0290586E-1,-3.6463413E-1,-3.909795E-1,3.9868748E-1,-3.6356798E-1,1.2756611E-1,4.618184E-2,7.604855E-1,7.419862E-2,9.407344E-1,4.9158698E-1,1.1215714E0,-6.2140757E-3,5.7250507E-2,-2.8612796E-2,4.241821E-2,-6.2953494E-2,-1.15914E-2,-2.2842422E-2,6.9182105E-2,-9.0553306E-2,-2.9733324E-2,-4.532845E-2,2.2417245E-2,-9.0221735E-3,-6.430911E-2,2.8356854E-3,8.745435E-2,-1.6370759E-4,-5.9364446E-2,-7.371167E-3,4.776038E-2,4.2685088E-2,-3.0806784E-2,2.083401E-3,8.7027624E-2,-4.359237E-2,2.9308666E-2,2.656181E-2,1.1250668E-1,1.02662794E-1,2.0857241E-2,4.2493474E-2,1.1861091E-1],"categories":[],"categories_nodes":[],"categories_segments":[],"categories_sizes":[],"default_left":[0,0,0,0,0,0,0,0,0,0,0,0,0,0,0,0,0,0,0,0,0,0,0,0,0,0,0,0,0,0,0,0,0,0,0,0,0,0,0,0,0,0,0,0,0,0,0,0,0,0,0,0,0,0,0,0,0,0,0,0,0,0,0],"id":9,"left_children":[1,3,5,7,9,11,13,15,17,19,21,23,25,27,29,31,33,35,37,39,41,43,45,47,49,51,53,55,57,59,61,-1,-1,-1,-1,-1,-1,-1,-1,-1,-1,-1,-1,-1,-1,-1,-1,-1,-1,-1,-1,-1,-1,-1,-1,-1,-1,-1,-1,-1,-1,-1,-1],"loss_changes":[1.8506581E3,1.4648706E3,9.162838E2,5.870322E2,4.9950415E2,4.1966553E2,3.7843872E2,3.170194E2,2.667758E2,3.2448804E2,3.054951E2,2.0344205E2,2.0306836E2,1.5078964E2,1.5127856E2,2.5886816E2,1.17121506E2,1.8502206E2,1.5050815E2,1.9265747E2,1.6203036E2,8.1757904E1,1.5810667E2,1.2784386E2,1.3190976E2,8.308129E1,9.1876526E1,9.2364E1,3.2742065E1,7.23749E1,8.589575E1,0E0,0E0,0E0,0E0,0E0,0E0,0E0,0E0,0E0,0E0,0E0,0E0,0E0,0E0,0E0,0E0,0E0,0E0,0E0,0E0,0E0,0E0,0E0,0E0,0E0,0E0,0E0,0E0,0E0,0E0,0E0,0E0],"parents":[2147483647,0,0,1,1,2,2,3,3,4,4,5,5,6,6,7,7,8,8,9,9,10,10,11,11,12,12,13,13,14,14,15,15,16,16,17,17,18,18,19,19,20,20,21,21,22,22,23,23,24,24,25,25,26,26,27,27,28,28,29,29,30,30],"right_children":[2,4,6,8,10,12,14,16,18,20,22,24,26,28,30,32,34,36,38,40,42,44,46,48,50,52,54,56,58,60,62,-1,-1,-1,-1,-1,-1,-1,-1,-1,-1,-1,-1,-1,-1,-1,-1,-1,-1,-1,-1,-1,-1,-1,-1,-1,-1,-1,-1,-1,-1,-1,-1],"split_conditions":[7.8467175E-2,1.9391602E-1,1.3986193E-1,2.508821E-1,7.9630844E-2,1.829202E-1,1.13024674E-1,1.8152393E-1,2.6368916E-1,9.111911E-2,1.3270599E1,1.7834048E-1,-7.253247E1,2.1896836E-1,-1.2073337E2,3.782318E-2,2.4425451E-1,2.4280165E2,7.63853E-2,1.6362402E-1,2.6285326E-1,1.8471742E-1,1.7463993E-1,1.1339457E-1,1.3480863E-1,2.4425428E-1,-5.4266125E2,3.8981162E-2,6.2024016E-2,9.185988E-2,6.592402E-2,-6.2140757E-3,5.7250507E-2,-2.8612796E-2,4.241821E-2,-6.2953494E-2,-1.15914E-2,-2.2842422E-2,6.9182105E-2,-9.0553306E-2,-2.9733324E-2,-4.532845E-2,2.2417245E-2,-9.0221735E-3,-6.430911E-2,2.8356854E-3,8.745435E-2,-1.6370759E-4,-5.9364446E-2,-7.371167E-3,4.776038E-2,4.2685088E-2,-3.0806784E-2,2.083401E-3,8.7027624E-2,-4.359237E-2,2.9308666E-2,2.656181E-2,1.1250668E-1,1.02662794E-1,2.0857241E-2,4.2493474E-2,1.1861091E-1],"split_indices":[1338,1030,4363,1410,1415,110,286,1029,2128,1771,4872,2509,4872,304,4872,542,231,4584,1393,1811,1778,3359,1775,1835,267,1287,4776,1839,3283,1474,2656,0,0,0,0,0,0,0,0,0,0,0,0,0,0,0,0,0,0,0,0,0,0,0,0,0,0,0,0,0,0,0,0],"split_type":[0,0,0,0,0,0,0,0,0,0,0,0,0,0,0,0,0,0,0,0,0,0,0,0,0,0,0,0,0,0,0,0,0,0,0,0,0,0,0,0,0,0,0,0,0,0,0,0,0,0,0,0,0,0,0,0,0,0,0,0,0,0,0],"sum_hessian":[2.6335766E4,1.7697348E4,8.638418E3,8.9044795E3,8.792868E3,5.1497637E3,3.488654E3,5.3486523E3,3.5558276E3,6.818519E3,1.974349E3,3.4050327E3,1.744731E3,1.0895524E3,2.3991016E3,4.0511047E3,1.2975474E3,2.8191216E3,7.367061E2,3.717311E3,3.101208E3,1.078017E3,8.96332E2,1.5342716E3,1.870761E3,6.1411786E2,1.130613E3,8.250479E2,2.6450446E2,4.7837473E2,1.9207268E3,8.008368E2,3.250268E3,9.959017E2,3.0164572E2,1.3109333E3,1.5081882E3,2.9732996E2,4.3937616E2,3.0893967E3,6.279143E2,2.6955916E3,4.056164E2,4.922011E2,5.858159E2,5.0465128E2,3.9168066E2,5.966674E2,9.376041E2,1.1882727E3,6.824883E2,2.9592178E2,3.1819604E2,1.4628595E2,9.8432715E2,2.4742595E2,5.7762195E2,5.725378E1,2.0725069E2,1.6458957E2,3.1378516E2,1.6349577E2,1.7572311E3],"tree_param":{"num_deleted":"0","num_feature":"4890","num_nodes":"63","size_leaf_vector":"1"}},{"base_weights":[9.046738E-4,-1.8033245E-1,3.561552E-1,5.1410243E-2,-4.3723667E-1,1.5727745E-2,6.779514E-1,2.4005789E-1,-2.1593186E-1,-5.25454E-1,2.6402563E-1,2.9336286E-1,-2.706494E-1,3.4831694E-1,9.4674784E-1,-7.679064E-2,4.310236E-1,-3.8001058E-1,1.3128266E-1,-7.617917E-1,-3.1972313E-1,-1.3749543E-1,9.225156E-1,5.7889295E-1,-3.0380517E-2,-1.3425633E-1,-7.727848E-1,1.2787412E-1,7.881631E-1,1.070467E0,3.6668995E-1,-3.891853E-2,1.8321656E-2,2.5383396E-2,7.2366774E-2,-6.261594E-2,-1.5556911E-2,-3.687219E-3,7.424021E-2,-8.28409E-2,-9.788778E-3,-4.5047846E-2,1.5203552E-2,-3.268818E-2,7.082878E-2,7.942185E-3,1.1434348E-1,3.967655E-2,9.569394E-2,4.752728E-2,-2.5983056E-2,2.5911933E-2,-3.1505495E-2,3.3557292E-3,-8.81001E-2,3.0848548E-2,-3.1654242E-2,2.8170833E-2,9.638246E-2,7.593782E-2,1.2215557E-1,4.4235624E-3,8.364832E-2],"categories":[],"categories_nodes":[],"categories_segments":[],"categories_sizes":[],"default_left":[0,0,0,0,0,0,0,0,0,0,0,0,0,0,0,0,0,0,0,0,0,0,0,0,0,0,0,0,0,0,0,0,0,0,0,0,0,0,0,0,0,0,0,0,0,0,0,0,0,0,0,0,0,0,0,0,0,0,0,0,0,0,0],"id":10,"left_children":[1,3,5,7,9,11,13,15,17,19,21,23,25,27,29,31,33,35,37,39,41,43,45,47,49,51,53,55,57,59,61,-1,-1,-1,-1,-1,-1,-1,-1,-1,-1,-1,-1,-1,-1,-1,-1,-1,-1,-1,-1,-1,-1,-1,-1,-1,-1,-1,-1,-1,-1,-1,-1],"loss_changes":[1.6756737E3,1.0260521E3,9.631537E2,4.5705618E2,5.0576917E2,3.3985168E2,4.0013892E2,3.2151733E2,2.1365369E2,3.5276978E2,2.4177625E2,2.0063739E2,1.4400208E2,1.9689511E2,1.7823096E2,1.6243036E2,1.717248E2,1.4058224E2,1.2374875E2,1.493247E2,2.3960638E2,9.1315094E1,6.441489E1,7.902554E1,1.1823908E2,1.1785016E2,3.9229797E1,1.0882658E2,6.005594E1,9.547095E1,6.647706E1,0E0,0E0,0E0,0E0,0E0,0E0,0E0,0E0,0E0,0E0,0E0,0E0,0E0,0E0,0E0,0E0,0E0,0E0,0E0,0E0,0E0,0E0,0E0,0E0,0E0,0E0,0E0,0E0,0E0,0E0,0E0,0E0],"parents":[2147483647,0,0,1,1,2,2,3,3,4,4,5,5,6,6,7,7,8,8,9,9,10,10,11,11,12,12,13,13,14,14,15,15,16,16,17,17,18,18,19,19,20,20,21,21,22,22,23,23,24,24,25,25,26,26,27,27,28,28,29,29,30,30],"right_children":[2,4,6,8,10,12,14,16,18,20,22,24,26,28,30,32,34,36,38,40,42,44,46,48,50,52,54,56,58,60,62,-1,-1,-1,-1,-1,-1,-1,-1,-1,-1,-1,-1,-1,-1,-1,-1,-1,-1,-1,-1,-1,-1,-1,-1,-1,-1,-1,-1,-1,-1,-1,-1],"split_conditions":[1.9407952E-1,2.2536857E-1,5.8742223E0,2.2112526E-1,1.4953257E-1,5.2587993E-2,6.71866E-2,2.0891966E-1,1.3986193E-1,6.533686E-2,2.6922727E-1,2.3228504E-1,2.87236E-1,1.1485918E-1,5.7476863E-2,1.8623458E-1,2.7730584E-1,9.778109E-2,1.2993667E-1,2.7583173E-1,2.5554025E-1,2.7027628E-1,8.213145E-2,1.00454796E2,1.7480211E-1,1.305445E-1,7.944544E-2,1.5413461E2,-2.5982767E2,2.3483804E-1,2.1081917E-1,-3.891853E-2,1.8321656E-2,2.5383396E-2,7.2366774E-2,-6.261594E-2,-1.5556911E-2,-3.687219E-3,7.424021E-2,-8.28409E-2,-9.788778E-3,-4.5047846E-2,1.5203552E-2,-3.268818E-2,7.082878E-2,7.942185E-3,1.1434348E-1,3.967655E-2,9.569394E-2,4.752728E-2,-2.5983056E-2,2.5911933E-2,-3.1505495E-2,3.3557292E-3,-8.81001E-2,3.0848548E-2,-3.1654242E-2,2.8170833E-2,9.638246E-2,7.593782E-2,1.2215557E-1,4.4235624E-3,8.364832E-2],"split_indices":[664,1409,4872,966,961,4359,1442,2940,4363,1744,1804,994,3388,1338,4359,2551,975,506,1036,2164,2128,505,2146,4396,1691,967,1898,4778,4776,2191,3370,0,0,0,0,0,0,0,0,0,0,0,0,0,0,0,0,0,0,0,0,0,0,0,0,0,0,0,0,0,0,0,0],"split_type":[0,0,0,0,0,0,0,0,0,0,0,0,0,0,0,0,0,0,0,0,0,0,0,0,0,0,0,0,0,0,0,0,0,0,0,0,0,0,0,0,0,0,0,0,0,0,0,0,0,0,0,0,0,0,0,0,0,0,0,0,0,0,0],"sum_hessian":[2.6024008E4,1.7232861E4,8.791146E3,9.060531E3,8.172331E3,4.2724165E3,4.5187305E3,5.3121562E3,3.7483748E3,7.2593687E3,9.129622E2,2.1693064E3,2.1031099E3,2.0307032E3,2.488027E3,1.9978838E3,3.3142722E3,2.5454226E3,1.2029521E3,3.3771228E3,3.882246E3,5.676332E2,3.45329E2,1.1522633E3,1.0170432E3,1.6548712E3,4.4823874E2,1.3535963E3,6.771069E2,2.0499521E3,4.3807477E2,9.072909E2,1.0905929E3,2.0655151E3,1.2487571E3,1.2131503E3,1.3322725E3,9.441114E2,2.588408E2,3.068933E3,3.0818988E2,3.0397708E3,8.424752E2,4.6428482E2,1.0334837E2,7.198236E1,2.7334665E2,7.79015E2,3.732483E2,3.171184E2,6.999248E2,5.20957E2,1.1339142E3,5.311999E1,3.9511874E2,9.626715E2,3.9092487E2,1.7504196E2,5.020649E2,6.7211237E2,1.3778398E3,2.6042188E2,1.7765291E2],"tree_param":{"num_deleted":"0","num_feature":"4890","num_nodes":"63","size_leaf_vector":"1"}},{"base_weights":[1.2067999E-3,1.0857585E-1,-5.4359293E-1,-5.5392876E-2,4.5936552E-1,-6.4367366E-1,2.1078116E-1,9.891154E-2,-3.8940397E-1,2.546616E-1,8.48783E-1,-7.3219264E-1,2.562038E-2,-3.5822925E-1,9.2264533E-1,2.4361444E-1,-2.3072973E-1,-5.2896935E-2,-5.9228766E-1,5.6372297E-1,8.478144E-2,4.809548E-1,1.0514655E0,-9.111422E-1,-4.5017505E-1,3.5618234E-1,-5.1222795E-1,-6.4587855E-1,2.6872632E-1,2.2212411E-1,1.2152706E0,-3.0164088E-3,4.5322996E-2,-3.4399033E-2,3.8495656E-2,-3.0835712E-2,3.3297952E-2,-8.437705E-2,-4.0583763E-2,8.1181906E-2,2.7684614E-2,2.4132175E-2,-2.5004163E-2,1.47450315E-2,8.157222E-2,4.7374617E-2,1.1438695E-1,-9.744736E-2,-2.8837834E-2,-6.0478993E-2,6.347234E-4,-1.0409686E-2,8.490806E-2,-7.503227E-2,1.260597E-2,-7.567641E-2,5.7664704E-2,7.983316E-2,-3.1504042E-2,-3.159404E-2,9.1105156E-2,1.2765889E-1,-8.6396806E-2],"categories":[],"categories_nodes":[],"categories_segments":[],"categories_sizes":[],"default_left":[0,0,0,0,0,0,0,0,0,0,0,0,0,0,0,0,0,0,0,0,0,0,0,0,0,0,0,0,0,0,0,0,0,0,0,0,0,0,0,0,0,0,0,0,0,0,0,0,0,0,0,0,0,0,0,0,0,0,0,0,0,0,0],"id":11,"left_children":[1,3,5,7,9,11,13,15,17,19,21,23,25,27,29,31,33,35,37,39,41,43,45,47,49,51,53,55,57,59,61,-1,-1,-1,-1,-1,-1,-1,-1,-1,-1,-1,-1,-1,-1,-1,-1,-1,-1,-1,-1,-1,-1,-1,-1,-1,-1,-1,-1,-1,-1,-1,-1],"loss_changes":[1.5061516E3,1.2372177E3,3.2017908E2,7.555454E2,5.459634E2,2.217627E2,2.0175345E2,4.7836993E2,3.1622363E2,2.358151E2,1.754596E2,1.664159E2,7.808364E1,5.0143948E1,4.5070724E1,3.9995404E2,2.1348064E2,1.7196663E2,1.3515863E2,1.1317163E2,1.5206339E2,9.370422E1,8.065027E1,7.944446E1,9.0723145E1,6.1788757E1,2.5503864E1,2.6224525E1,2.7412092E1,2.4899437E1,2.0965393E1,0E0,0E0,0E0,0E0,0E0,0E0,0E0,0E0,0E0,0E0,0E0,0E0,0E0,0E0,0E0,0E0,0E0,0E0,0E0,0E0,0E0,0E0,0E0,0E0,0E0,0E0,0E0,0E0,0E0,0E0,0E0,0E0],"parents":[2147483647,0,0,1,1,2,2,3,3,4,4,5,5,6,6,7,7,8,8,9,9,10,10,11,11,12,12,13,13,14,14,15,15,16,16,17,17,18,18,19,19,20,20,21,21,22,22,23,23,24,24,25,25,26,26,27,27,28,28,29,29,30,30],"right_children":[2,4,6,8,10,12,14,16,18,20,22,24,26,28,30,32,34,36,38,40,42,44,46,48,50,52,54,56,58,60,62,-1,-1,-1,-1,-1,-1,-1,-1,-1,-1,-1,-1,-1,-1,-1,-1,-1,-1,-1,-1,-1,-1,-1,-1,-1,-1,-1,-1,-1,-1,-1,-1],"split_conditions":[3.0422398E-1,1.4136337E-1,1.2993667E-1,2.3141873E-1,1.675694E2,2.8440297E-1,2.69186E-1,2.86522E-1,8.5917935E-2,-1.0110904E2,8.16239E-2,8.607868E-2,1.3046743E-1,1.6080116E-1,5.1913183E-2,1.2977438E-1,2.751437E-1,1.3831967E-1,9.774909E-2,-1.07452135E1,2.8481886E-1,1.1003158E-1,2.2169089E-2,2.7564636E-1,2.6074395E-1,9.36643E-2,8.2903326E-2,2.5562662E-1,8.068139E-2,8.386276E-2,2.669671E-1,-3.0164088E-3,4.5322996E-2,-3.4399033E-2,3.8495656E-2,-3.0835712E-2,3.3297952E-2,-8.437705E-2,-4.0583763E-2,8.1181906E-2,2.7684614E-2,2.4132175E-2,-2.5004163E-2,1.47450315E-2,8.157222E-2,4.7374617E-2,1.1438695E-1,-9.744736E-2,-2.8837834E-2,-6.0478993E-2,6.347234E-4,-1.0409686E-2,8.490806E-2,-7.503227E-2,1.260597E-2,-7.567641E-2,5.7664704E-2,7.983316E-2,-3.1504042E-2,-3.159404E-2,9.1105156E-2,1.2765889E-1,-8.6396806E-2],"split_indices":[1372,4363,1036,2501,4396,1776,1741,3360,2565,4874,331,1774,1436,294,1034,3379,1805,1733,627,4778,966,258,1405,2173,2128,1356,1849,2253,508,1734,2064,0,0,0,0,0,0,0,0,0,0,0,0,0,0,0,0,0,0,0,0,0,0,0,0,0,0,0,0,0,0,0,0],"split_type":[0,0,0,0,0,0,0,0,0,0,0,0,0,0,0,0,0,0,0,0,0,0,0,0,0,0,0,0,0,0,0,0,0,0,0,0,0,0,0,0,0,0,0,0,0,0,0,0,0,0,0,0,0,0,0,0,0,0,0,0,0,0,0],"sum_hessian":[2.5746535E4,2.1508453E4,4.238082E3,1.4657825E4,6.850628E3,3.741813E3,4.962692E2,1.0026532E4,4.6312925E3,4.4913354E3,2.3592927E3,3.3046543E3,4.3715866E2,2.7608472E2,2.2018448E2,6.9680312E3,3.0585015E3,1.7424651E3,2.8888274E3,1.5922505E3,2.899085E3,8.3937213E2,1.5199205E3,2.0204077E3,1.2842465E3,2.709626E2,1.6619604E2,1.8923355E2,8.6851166E1,6.5394485E1,1.5479E2,3.0219382E3,3.9460928E3,2.5836575E3,4.7484387E2,1.0485192E3,6.939459E2,1.2284182E3,1.6604093E3,8.52856E2,7.3939453E2,1.9756742E3,9.2341064E2,4.2120074E2,4.1817142E2,2.1042838E2,1.3094921E3,1.8333973E3,1.8701035E2,9.5909546E2,3.2515103E2,1.4052556E2,1.3043704E2,1.20916214E2,4.527983E1,1.7384631E2,1.5387226E1,4.5345364E1,4.1505802E1,3.7021465E1,2.837302E1,1.5073087E2,4.059126E0],"tree_param":{"num_deleted":"0","num_feature":"4890","num_nodes":"63","size_leaf_vector":"1"}},{"base_weights":[5.4701546E-4,3.0975467E-1,-1.7144997E-1,4.7086185E-1,-1.4258234E-1,1.55179E-2,-4.2878315E-1,3.4459212E-1,9.660797E-1,-3.34043E-1,1.8349116E-1,1.14267245E-1,-4.6085402E-1,-5.0677186E-1,1.4897273E-1,1.0893365E-1,5.959365E-1,1.9162278E-1,1.048175E0,-4.6228048E-1,1.2951908E-1,-3.8749404E-2,5.7032746E-1,-6.947362E-2,3.8156068E-1,-2.7037126E-1,-8.3554476E-1,-5.92529E-1,-1.0710939E-1,-1.951162E-1,7.151977E-1,-3.022377E-2,2.8865946E-2,1.3323923E-2,7.2581686E-2,3.8122706E-2,-1.176044E-1,1.07885025E-1,-4.2367812E-2,-2.3237849E-2,-6.879737E-2,2.98735E-2,-6.327637E-2,-1.5595473E-2,7.083578E-2,6.5094694E-2,-1.0058723E-1,-4.1111097E-2,5.5663465E-3,1.9059647E-2,6.7003995E-2,-6.844448E-2,-8.799868E-3,-4.5975953E-2,-1.0389217E-1,-6.470061E-2,6.640609E-3,-4.0440198E-2,2.5920853E-2,-3.447518E-2,7.1674906E-2,1.1274006E-1,1.9142795E-2],"categories":[],"categories_nodes":[],"categories_segments":[],"categories_sizes":[],"default_left":[0,0,0,0,0,0,0,0,0,0,0,0,0,0,0,0,0,0,0,0,0,0,0,0,0,0,0,0,0,0,0,0,0,0,0,0,0,0,0,0,0,0,0,0,0,0,0,0,0,0,0,0,0,0,0,0,0,0,0,0,0,0,0],"id":12,"left_children":[1,3,5,7,9,11,13,15,17,19,21,23,25,27,29,31,33,35,37,39,41,43,45,47,49,51,53,55,57,59,61,-1,-1,-1,-1,-1,-1,-1,-1,-1,-1,-1,-1,-1,-1,-1,-1,-1,-1,-1,-1,-1,-1,-1,-1,-1,-1,-1,-1,-1,-1,-1,-1],"loss_changes":[1.3621893E3,6.672339E2,7.9186884E2,4.2180566E2,1.5021321E2,4.4851886E2,3.1214758E2,3.18649E2,8.696887E1,9.0162415E1,7.657152E1,3.8788574E2,1.1661783E2,2.0909155E2,1.6077551E2,2.0539766E2,1.5636316E2,3.484124E1,5.6415894E1,6.1455383E1,4.2655228E1,4.9712017E1,4.1947983E1,2.0014206E2,1.7711313E2,8.2011986E1,4.1654663E1,1.8039368E2,1.17646324E2,7.032987E1,6.711481E1,0E0,0E0,0E0,0E0,0E0,0E0,0E0,0E0,0E0,0E0,0E0,0E0,0E0,0E0,0E0,0E0,0E0,0E0,0E0,0E0,0E0,0E0,0E0,0E0,0E0,0E0,0E0,0E0,0E0,0E0,0E0,0E0],"parents":[2147483647,0,0,1,1,2,2,3,3,4,4,5,5,6,6,7,7,8,8,9,9,10,10,11,11,12,12,13,13,14,14,15,15,16,16,17,17,18,18,19,19,20,20,21,21,22,22,23,23,24,24,25,25,26,26,27,27,28,28,29,29,30,30],"right_children":[2,4,6,8,10,12,14,16,18,20,22,24,26,28,30,32,34,36,38,40,42,44,46,48,50,52,54,56,58,60,62,-1,-1,-1,-1,-1,-1,-1,-1,-1,-1,-1,-1,-1,-1,-1,-1,-1,-1,-1,-1,-1,-1,-1,-1,-1,-1,-1,-1,-1,-1,-1,-1],"split_conditions":[-8.2182594E1,1.8598268E2,2.6029554E-1,2.7987233E-1,1.8015286E-1,2.908584E-1,1.270273E-1,1.5214604E-1,-4.9824384E2,2.6607427E-1,1.9333014E-1,2.0866477E-1,1.4230835E-1,2.6368916E-1,1.6973364E-1,8.355431E-2,1.23096995E-1,4.797673E2,3.3950773E-1,1.8559137E-1,3.1870064E-1,2.4849083E-1,3.3397645E-1,5.85742E-2,2.1509351E-1,5.1795132E-2,1.383205E-1,2.711908E-1,9.769031E-2,2.7572533E-1,1.0514429E-1,-3.022377E-2,2.8865946E-2,1.3323923E-2,7.2581686E-2,3.8122706E-2,-1.176044E-1,1.07885025E-1,-4.2367812E-2,-2.3237849E-2,-6.879737E-2,2.98735E-2,-6.327637E-2,-1.5595473E-2,7.083578E-2,6.5094694E-2,-1.0058723E-1,-4.1111097E-2,5.5663465E-3,1.9059647E-2,6.7003995E-2,-6.844448E-2,-8.799868E-3,-4.5975953E-2,-1.0389217E-1,-6.470061E-2,6.640609E-3,-4.0440198E-2,2.5920853E-2,-3.447518E-2,7.1674906E-2,1.1274006E-1,1.9142795E-2],"split_indices":[4874,4778,966,628,2508,1372,1414,3343,4776,1803,3406,3378,2600,2128,2254,901,4363,4590,2501,1381,967,1811,3352,542,2078,1802,2983,2165,1393,1803,1351,0,0,0,0,0,0,0,0,0,0,0,0,0,0,0,0,0,0,0,0,0,0,0,0,0,0,0,0,0,0,0,0],"split_type":[0,0,0,0,0,0,0,0,0,0,0,0,0,0,0,0,0,0,0,0,0,0,0,0,0,0,0,0,0,0,0,0,0,0,0,0,0,0,0,0,0,0,0,0,0,0,0,0,0,0,0,0,0,0,0,0,0,0,0,0,0,0,0],"sum_hessian":[2.5611354E4,9.15398E3,1.6457373E4,6.749865E3,2.4041152E3,9.532433E3,6.92494E3,5.3798237E3,1.3700415E3,1.5147026E3,8.8941266E2,7.8963267E3,1.636106E3,6.1014546E3,8.234856E2,2.7772908E3,2.6025327E3,1.3162958E2,1.238412E3,1.1864827E3,3.282199E2,5.654544E2,3.2395825E2,4.679986E3,3.2163408E3,1.0858237E3,5.502823E2,5.0231377E3,1.078317E3,5.1262445E2,3.1086108E2,8.445265E2,1.9327643E3,5.7086365E2,2.0316691E3,1.16236565E2,1.539301E1,1.2133904E3,2.5021603E1,5.887664E2,5.977163E2,2.6909317E2,5.9126743E1,4.8945978E2,7.599464E1,3.0875314E2,1.5205089E1,1.2540399E3,3.4259458E3,1.9362588E3,1.280082E3,3.311655E2,7.546582E2,1.9438055E2,3.5590173E2,4.639581E3,3.835565E2,5.951816E2,4.8313538E2,4.408961E2,7.172839E1,1.7331274E2,1.3754836E2],"tree_param":{"num_deleted":"0","num_feature":"4890","num_nodes":"63","size_leaf_vector":"1"}},{"base_weights":[1.9350062E-3,2.1008772E-1,-2.3066862E-1,-1.0551862E-1,4.012308E-1,4.287478E-2,-4.494296E-1,-2.724138E-1,1.8198135E-1,1.1133873E-1,6.38931E-1,-9.919081E-2,6.214484E-1,-5.108971E-1,2.9266858E-1,-4.7329333E-2,-4.900396E-1,-2.2734882E-1,3.7640992E-1,3.3576548E-1,-1.3599543E-1,4.6879938E-1,9.85455E-1,-2.0635183E-1,4.5941994E-1,-2.3006942E-2,7.483567E-1,-7.2335297E-1,-3.434436E-1,7.085029E-1,-1.4169702E-1,-3.1996604E-2,1.7377937E-2,-6.1590668E-2,-5.397207E-3,-3.6155343E-2,4.6945985E-2,1.6630461E-2,7.790018E-2,1.1687269E-2,6.9231965E-2,1.0779044E-2,-4.2122994E-2,2.4436692E-2,7.071583E-2,1.0637512E-1,3.7492782E-2,5.0675026E-3,-4.57549E-2,1.9882971E-2,8.990388E-2,-5.5515643E-2,6.447004E-2,9.00262E-2,2.8276661E-2,-8.347585E-2,-3.3766594E-2,-4.6691433E-2,8.442855E-3,9.578698E-2,-3.246094E-2,-3.7786968E-2,5.783045E-2],"categories":[],"categories_nodes":[],"categories_segments":[],"categories_sizes":[],"default_left":[0,0,0,0,0,0,0,0,0,0,0,0,0,0,0,0,0,0,0,0,0,0,0,0,0,0,0,0,0,0,0,0,0,0,0,0,0,0,0,0,0,0,0,0,0,0,0,0,0,0,0,0,0,0,0,0,0,0,0,0,0,0,0],"id":13,"left_children":[1,3,5,7,9,11,13,15,17,19,21,23,25,27,29,31,33,35,37,39,41,43,45,47,49,51,53,55,57,59,61,-1,-1,-1,-1,-1,-1,-1,-1,-1,-1,-1,-1,-1,-1,-1,-1,-1,-1,-1,-1,-1,-1,-1,-1,-1,-1,-1,-1,-1,-1,-1,-1],"loss_changes":[1.2250338E3,8.055535E2,7.1505756E2,2.417528E2,5.7298425E2,4.36569E2,3.0300708E2,1.5611728E2,1.4737973E2,2.0809229E2,2.689187E2,2.5537592E2,8.5652954E1,2.1790381E2,9.194937E1,9.458071E1,8.891205E1,5.596319E1,1.0603862E2,1.5330478E2,1.2407878E2,1.6387415E2,7.1482544E1,2.3108781E2,7.849223E1,6.191269E1,6.161786E1,1.15811646E2,1.8130072E2,6.7283646E1,4.265249E1,0E0,0E0,0E0,0E0,0E0,0E0,0E0,0E0,0E0,0E0,0E0,0E0,0E0,0E0,0E0,0E0,0E0,0E0,0E0,0E0,0E0,0E0,0E0,0E0,0E0,0E0,0E0,0E0,0E0,0E0,0E0,0E0],"parents":[2147483647,0,0,1,1,2,2,3,3,4,4,5,5,6,6,7,7,8,8,9,9,10,10,11,11,12,12,13,13,14,14,15,15,16,16,17,17,18,18,19,19,20,20,21,21,22,22,23,23,24,24,25,25,26,26,27,27,28,28,29,29,30,30],"right_children":[2,4,6,8,10,12,14,16,18,20,22,24,26,28,30,32,34,36,38,40,42,44,46,48,50,52,54,56,58,60,62,-1,-1,-1,-1,-1,-1,-1,-1,-1,-1,-1,-1,-1,-1,-1,-1,-1,-1,-1,-1,-1,-1,-1,-1,-1,-1,-1,-1,-1,-1,-1,-1],"split_conditions":[2.5094733E-1,1.6057816E-1,1.8498498E-1,1.12235054E-1,-1.9391226E2,2.7707696E-1,2.7971405E-1,1.4609383E-1,1.027898E-1,2.5255424E-1,2.7234623E-1,2.6196003E-1,3.470051E-2,6.611778E-2,2.4633624E-1,6.056146E-2,2.5969926E-1,2.7066967E-1,2.538235E-1,2.3939385E-1,2.2586799E-1,1.4690615E-1,2.3600015E-1,2.2407381E-1,1.769891E-1,3.9187122E-2,2.670375E-1,2.321035E-1,2.5405633E-1,1.998561E-1,2.794423E-1,-3.1996604E-2,1.7377937E-2,-6.1590668E-2,-5.397207E-3,-3.6155343E-2,4.6945985E-2,1.6630461E-2,7.790018E-2,1.1687269E-2,6.9231965E-2,1.0779044E-2,-4.2122994E-2,2.4436692E-2,7.071583E-2,1.0637512E-1,3.7492782E-2,5.0675026E-3,-4.57549E-2,1.9882971E-2,8.990388E-2,-5.5515643E-2,6.447004E-2,9.00262E-2,2.8276661E-2,-8.347585E-2,-3.3766594E-2,-4.6691433E-2,8.442855E-3,9.578698E-2,-3.246094E-2,-3.7786968E-2,5.783045E-2],"split_indices":[1068,2509,994,1734,4776,1804,2220,1827,2656,3387,664,2165,1771,1801,3325,1811,277,1776,1768,3379,967,442,1826,1343,1421,1367,3361,663,2209,2529,1776,0,0,0,0,0,0,0,0,0,0,0,0,0,0,0,0,0,0,0,0,0,0,0,0,0,0,0,0,0,0,0,0],"split_type":[0,0,0,0,0,0,0,0,0,0,0,0,0,0,0,0,0,0,0,0,0,0,0,0,0,0,0,0,0,0,0,0,0,0,0,0,0,0,0,0,0,0,0,0,0,0,0,0,0,0,0,0,0,0,0,0,0,0,0,0,0,0,0],"sum_hessian":[2.529969E4,1.3351645E4,1.1948045E4,5.0363354E3,8.315309E3,5.3096055E3,6.6384395E3,3.1865688E3,1.8497667E3,3.7470208E3,4.5682876E3,4.263544E3,1.0460614E3,6.13093E3,5.07509E2,1.5670397E3,1.6195293E3,5.956262E2,1.2541405E3,1.9642954E3,1.7827253E3,3.065556E3,1.5027318E3,3.5778235E3,6.857207E2,1.7223755E2,8.7382385E2,2.7008801E3,3.4300503E3,2.5896298E2,2.4854602E2,7.015503E2,8.654894E2,1.2564526E3,3.630766E2,4.9983893E2,9.5787315E1,8.250008E2,4.2913968E2,1.2179249E3,7.4637054E2,9.615362E2,8.211891E2,1.5799458E3,1.4856101E3,1.3312632E3,1.7146855E2,1.7687861E3,1.8090374E3,4.3143433E2,2.5428639E2,9.594213E1,7.629541E1,6.581572E2,2.1566661E2,2.0946707E3,6.062093E2,2.6618354E3,7.682149E2,2.0866856E2,5.029443E1,1.8751358E2,6.103244E1],"tree_param":{"num_deleted":"0","num_feature":"4890","num_nodes":"63","size_leaf_vector":"1"}},{"base_weights":[-6.0151896E-4,-1.0528751E-1,4.4736195E-1,-5.6607807E-3,-5.638622E-1,2.1415347E-2,6.6002035E-1,1.344454E-1,-2.922995E-1,-6.9824517E-1,-1.1974713E-1,2.5932953E-1,-2.802329E-1,3.1050062E-1,8.811145E-1,-4.886291E-2,4.1132653E-1,-5.021313E-1,-6.9875956E-2,-9.21983E-1,-4.7168007E-1,1.10676326E-1,-5.5438536E-1,-2.702838E-1,4.2723224E-1,-5.525596E-1,4.9635272E-2,5.3197026E-1,-3.0910393E-2,4.906499E-1,1.0285628E0,-3.4174614E-2,9.077508E-3,2.0071983E-2,7.295533E-2,-5.9638906E-2,7.894113E-3,2.294846E-2,-2.5762713E-2,-9.936421E-2,-4.5339685E-2,-5.675724E-2,2.689206E-2,3.5759218E-2,-3.4017675E-2,-6.797353E-2,4.1839704E-2,1.2256951E-3,-8.472533E-2,6.516608E-2,-1.3954575E-3,-7.0581414E-2,2.4470899E-3,5.2766163E-2,-2.3356806E-2,7.118576E-2,-3.339959E-3,3.068982E-2,-3.238173E-2,1.8774265E-2,8.196035E-2,7.489902E-2,1.1599471E-1],"categories":[],"categories_nodes":[],"categories_segments":[],"categories_sizes":[],"default_left":[0,0,0,0,0,0,0,0,0,0,0,0,0,0,0,0,0,0,0,0,0,0,0,0,0,0,0,0,0,0,0,0,0,0,0,0,0,0,0,0,0,0,0,0,0,0,0,0,0,0,0,0,0,0,0,0,0,0,0,0,0,0,0],"id":14,"left_children":[1,3,5,7,9,11,13,15,17,19,21,23,25,27,29,31,33,35,37,39,41,43,45,47,49,51,53,55,57,59,61,-1,-1,-1,-1,-1,-1,-1,-1,-1,-1,-1,-1,-1,-1,-1,-1,-1,-1,-1,-1,-1,-1,-1,-1,-1,-1,-1,-1,-1,-1,-1,-1],"loss_changes":[1.1798629E3,9.3170325E2,4.3168073E2,6.7290845E2,2.1714478E2,1.1404341E2,2.4537073E2,5.712448E2,2.5671136E2,1.4120007E2,8.486087E1,7.91109E1,6.2975075E1,9.326204E1,1.1156445E2,2.7700793E2,3.0032007E2,1.550769E2,1.502174E2,4.671936E1,9.888995E1,6.1815586E1,3.607672E1,3.4969864E1,6.683428E1,3.396866E1,4.314696E1,7.610248E1,4.8203228E1,5.3203094E1,5.0998535E1,0E0,0E0,0E0,0E0,0E0,0E0,0E0,0E0,0E0,0E0,0E0,0E0,0E0,0E0,0E0,0E0,0E0,0E0,0E0,0E0,0E0,0E0,0E0,0E0,0E0,0E0,0E0,0E0,0E0,0E0,0E0,0E0],"parents":[2147483647,0,0,1,1,2,2,3,3,4,4,5,5,6,6,7,7,8,8,9,9,10,10,11,11,12,12,13,13,14,14,15,15,16,16,17,17,18,18,19,19,20,20,21,21,22,22,23,23,24,24,25,25,26,26,27,27,28,28,29,29,30,30],"right_children":[2,4,6,8,10,12,14,16,18,20,22,24,26,28,30,32,34,36,38,40,42,44,46,48,50,52,54,56,58,60,62,-1,-1,-1,-1,-1,-1,-1,-1,-1,-1,-1,-1,-1,-1,-1,-1,-1,-1,-1,-1,-1,-1,-1,-1,-1,-1,-1,-1,-1,-1,-1,-1],"split_conditions":[2.6515502E-1,2.9963768E-1,3.4162253E-2,1.3875717E-1,1.3472408E-1,2.5893074E-1,2.0036654E-1,1.9606587E-1,8.762548E-2,5.797781E-2,2.680889E-1,1.5412906E-1,1.4650424E-1,2.1384948E-1,7.136622E-2,8.9715146E-2,1.3711797E-1,2.5962198E-1,1.0597132E-1,1.1841782E-1,2.6394585E-1,1.3381262E-1,1.9908324E-1,1.4813632E-1,2.4507503E-1,1.6118276E-1,1.8219998E-1,1.2058156E-1,-4.139882E1,2.1465021E-1,1.4735696E-1,-3.4174614E-2,9.077508E-3,2.0071983E-2,7.295533E-2,-5.9638906E-2,7.894113E-3,2.294846E-2,-2.5762713E-2,-9.936421E-2,-4.5339685E-2,-5.675724E-2,2.689206E-2,3.5759218E-2,-3.4017675E-2,-6.797353E-2,4.1839704E-2,1.2256951E-3,-8.472533E-2,6.516608E-2,-1.3954575E-3,-7.0581414E-2,2.4470899E-3,5.2766163E-2,-2.3356806E-2,7.118576E-2,-3.339959E-3,3.068982E-2,-3.238173E-2,1.8774265E-2,8.196035E-2,7.489902E-2,1.1599471E-1],"split_indices":[2182,1381,1348,2600,1811,2947,2295,3379,2144,1744,3010,3017,1747,3388,304,901,2227,2210,930,1801,1805,2556,1696,3357,2983,1384,1372,2687,4684,3378,3343,0,0,0,0,0,0,0,0,0,0,0,0,0,0,0,0,0,0,0,0,0,0,0,0,0,0,0,0,0,0,0,0],"split_type":[0,0,0,0,0,0,0,0,0,0,0,0,0,0,0,0,0,0,0,0,0,0,0,0,0,0,0,0,0,0,0,0,0,0,0,0,0,0,0,0,0,0,0,0,0,0,0,0,0,0,0,0,0,0,0,0,0,0,0,0,0,0,0],"sum_hessian":[2.5157404E4,2.0392566E4,4.764838E3,1.6753771E4,3.638795E3,1.5870795E3,3.1777583E3,1.1253636E4,5.5001353E3,2.793077E3,8.45718E2,8.873525E2,6.99727E2,1.2322087E3,1.9455497E3,6.771445E3,4.482191E3,2.829531E3,2.670604E3,1.4037623E3,1.3893146E3,5.5318976E2,2.9252823E2,2.1345247E2,6.739E2,3.8292416E2,3.1680283E2,7.4704834E2,4.8516037E2,5.344843E2,1.4110653E3,2.1856704E3,4.5857744E3,2.6981501E3,1.7840409E3,2.4345825E3,3.9494843E2,1.0292655E3,1.6413385E3,1.2165928E3,1.871695E2,1.2302556E3,1.5905885E2,3.5756906E2,1.9562073E2,2.5940347E2,3.3124752E1,1.4394275E2,6.950971E1,4.4636188E2,2.2753815E2,3.0238898E2,8.053518E1,1.1754029E2,1.9926254E2,5.6653204E2,1.8051627E2,2.252883E2,2.5987207E2,2.7907605E2,2.5540826E2,4.5326453E2,9.5780084E2],"tree_param":{"num_deleted":"0","num_feature":"4890","num_nodes":"63","size_leaf_vector":"1"}},{"base_weights":[9.6008444E-4,-1.5773964E-1,2.7603528E-1,-2.390288E-2,-4.4313633E-1,7.868135E-2,6.17136E-1,1.3115466E-1,-2.8211617E-1,-5.931433E-1,-1.8655233E-1,-1.3118136E-1,2.8311625E-1,1.9675076E-1,8.400579E-1,2.5763977E-1,-2.3320359E-1,3.8539723E-2,-4.32952E-1,-7.074454E-1,-8.693984E-2,-3.3106577E-1,4.1430306E-1,-5.3512007E-1,2.027541E-2,4.6524934E-2,5.055311E-1,7.632326E-3,7.229133E-1,5.319126E-1,1.0513395E0,4.24734E-2,-2.888203E-3,-4.453751E-2,-1.7993537E-3,-8.125271E-3,6.013238E-2,-4.9851388E-2,1.8316258E-2,-7.474868E-2,1.908545E-2,-5.6425642E-2,2.1861147E-2,-1.5513045E-2,-7.319623E-2,6.6356234E-2,-1.6760238E-2,1.8310644E-2,-6.3291065E-2,1.8966101E-2,-2.751317E-2,-7.1122693E-3,5.2596506E-2,2.5434393E-2,7.68294E-2,1.12163825E-2,-5.9652526E-2,8.640614E-2,-2.1126134E-2,2.3231708E-2,8.028876E-2,5.3474244E-2,1.119233E-1],"categories":[],"categories_nodes":[],"categories_segments":[],"categories_sizes":[],"default_left":[0,0,0,0,0,0,0,0,0,0,0,0,0,0,0,0,0,0,0,0,0,0,0,0,0,0,0,0,0,0,0,0,0,0,0,0,0,0,0,0,0,0,0,0,0,0,0,0,0,0,0,0,0,0,0,0,0,0,0,0,0,0,0],"id":15,"left_children":[1,3,5,7,9,11,13,15,17,19,21,23,25,27,29,31,33,35,37,39,41,43,45,47,49,51,53,55,57,59,61,-1,-1,-1,-1,-1,-1,-1,-1,-1,-1,-1,-1,-1,-1,-1,-1,-1,-1,-1,-1,-1,-1,-1,-1,-1,-1,-1,-1,-1,-1,-1,-1],"loss_changes":[1.087959E3,6.036549E2,6.137488E2,4.3084042E2,1.9407971E2,2.4789719E2,3.1300037E2,3.099188E2,1.9529028E2,1.8413232E2,1.6189252E2,1.7445929E2,1.5398639E2,1.1535359E2,1.4159521E2,2.3898135E2,7.9127846E1,8.718738E1,1.1100653E2,9.3550415E1,8.581504E1,1.0584239E2,5.2562355E1,5.473291E1,1.0387079E2,8.009195E1,9.936777E1,5.3987324E1,4.059761E1,7.2079254E1,4.479663E1,0E0,0E0,0E0,0E0,0E0,0E0,0E0,0E0,0E0,0E0,0E0,0E0,0E0,0E0,0E0,0E0,0E0,0E0,0E0,0E0,0E0,0E0,0E0,0E0,0E0,0E0,0E0,0E0,0E0,0E0,0E0,0E0],"parents":[2147483647,0,0,1,1,2,2,3,3,4,4,5,5,6,6,7,7,8,8,9,9,10,10,11,11,12,12,13,13,14,14,15,15,16,16,17,17,18,18,19,19,20,20,21,21,22,22,23,23,24,24,25,25,26,26,27,27,28,28,29,29,30,30],"right_children":[2,4,6,8,10,12,14,16,18,20,22,24,26,28,30,32,34,36,38,40,42,44,46,48,50,52,54,56,58,60,62,-1,-1,-1,-1,-1,-1,-1,-1,-1,-1,-1,-1,-1,-1,-1,-1,-1,-1,-1,-1,-1,-1,-1,-1,-1,-1,-1,-1,-1,-1,-1,-1],"split_conditions":[1.3894619E-1,2.9236653E-1,1.4152008E-1,1.0923806E2,8.1159204E-2,4.065422E2,3.887952E-2,1.8999611E2,1.0863372E-1,2.5769138E-1,2.653746E-1,4.0064085E-2,1.3941175E-1,9.64402E-2,2.4733558E-1,1.139742E-1,1.300705E-1,2.6500008E-1,2.6504377E-1,3.007554E-1,4.490305E-2,2.7613214E-1,2.8963768E-1,-1.1720154E3,1.327447E-1,2.8047615E-1,-1.609305E1,2.1279125E-1,3.1043875E-1,7.906491E1,-3.380717E2,4.24734E-2,-2.888203E-3,-4.453751E-2,-1.7993537E-3,-8.125271E-3,6.013238E-2,-4.9851388E-2,1.8316258E-2,-7.474868E-2,1.908545E-2,-5.6425642E-2,2.1861147E-2,-1.5513045E-2,-7.319623E-2,6.6356234E-2,-1.6760238E-2,1.8310644E-2,-6.3291065E-2,1.8966101E-2,-2.751317E-2,-7.1122693E-3,5.2596506E-2,2.5434393E-2,7.68294E-2,1.12163825E-2,-5.9652526E-2,8.640614E-2,-2.1126134E-2,2.3231708E-2,8.028876E-2,5.3474244E-2,1.119233E-1],"split_indices":[4363,929,295,4874,1734,4584,1405,4778,1030,2209,2173,542,3405,961,2277,2573,1397,1776,2210,2138,1403,3352,3325,4392,2565,987,4872,2600,3353,4872,4396,0,0,0,0,0,0,0,0,0,0,0,0,0,0,0,0,0,0,0,0,0,0,0,0,0,0,0,0,0,0,0,0],"split_type":[0,0,0,0,0,0,0,0,0,0,0,0,0,0,0,0,0,0,0,0,0,0,0,0,0,0,0,0,0,0,0,0,0,0,0,0,0,0,0,0,0,0,0,0,0,0,0,0,0,0,0,0,0,0,0,0,0,0,0,0,0,0,0],"sum_hessian":[2.492012E4,1.5803182E4,9.116937E3,1.0758887E4,5.0442954E3,5.7761846E3,3.3407524E3,6.7225034E3,4.036383E3,3.182434E3,1.8618612E3,2.8504314E3,2.9257532E3,1.1583062E3,2.1824463E3,4.990403E3,1.7321002E3,1.2915253E3,2.744858E3,2.59588E3,5.865543E2,1.5012422E3,3.6061902E2,7.76624E2,2.0738074E3,1.4182812E3,1.5074718E3,8.527993E2,3.0550687E2,8.8916034E2,1.2932858E3,3.1518313E3,1.8385718E3,8.7166895E2,8.6043134E2,1.0655676E3,2.2595769E2,2.4810369E3,2.638209E2,2.4852678E3,1.10612015E2,2.2860017E2,3.5795413E2,1.0443231E3,4.569191E2,2.5237419E2,1.0824483E2,9.296522E1,6.836588E2,1.318272E3,7.5553546E2,1.1395131E3,2.7876828E2,7.717187E2,7.357532E2,7.277058E2,1.250935E2,2.654709E2,4.0035976E1,4.2316153E2,4.659988E2,1.5125711E2,1.1420287E3],"tree_param":{"num_deleted":"0","num_feature":"4890","num_nodes":"63","size_leaf_vector":"1"}},{"base_weights":[4.010815E-4,-1.0757131E-1,3.6133924E-1,-1.675839E-2,-4.9968824E-1,5.0332073E-2,6.550989E-1,-1.1782459E-1,3.7356362E-1,-6.7390555E-1,-2.2625697E-1,3.1716663E-1,-2.6049125E-1,2.3037511E-1,8.081026E-1,-2.1171229E-1,3.1364408E-1,5.4024154E-1,-8.41666E-2,-7.4381316E-1,7.419069E-2,-3.569144E-1,3.767459E-1,5.348617E-1,3.192885E-2,2.0983087E-1,-4.474556E-1,4.3005508E-1,-1.7918192E-1,4.6572694E-1,9.879911E-1,-6.9380812E-3,-5.337081E-2,1.1905518E-2,6.384111E-2,1.22842025E-2,7.414037E-2,-2.4277894E-2,4.287333E-2,-8.027894E-2,-6.8616867E-3,-2.2365114E-2,9.17173E-2,-5.1383115E-2,1.47376E-2,6.788651E-3,9.9223725E-2,2.5731323E-2,7.72495E-2,-5.91617E-2,1.4524179E-2,-1.54743865E-2,5.9225846E-2,-9.640231E-3,-6.680389E-2,1.1190532E-2,7.741097E-2,-3.8615763E-2,4.6121847E-2,6.673282E-2,1.2420357E-3,1.07561104E-1,5.6653555E-2],"categories":[],"categories_nodes":[],"categories_segments":[],"categories_sizes":[],"default_left":[0,0,0,0,0,0,0,0,0,0,0,0,0,0,0,0,0,0,0,0,0,0,0,0,0,0,0,0,0,0,0,0,0,0,0,0,0,0,0,0,0,0,0,0,0,0,0,0,0,0,0,0,0,0,0,0,0,0,0,0,0,0,0],"id":16,"left_children":[1,3,5,7,9,11,13,15,17,19,21,23,25,27,29,31,33,35,37,39,41,43,45,47,49,51,53,55,57,59,61,-1,-1,-1,-1,-1,-1,-1,-1,-1,-1,-1,-1,-1,-1,-1,-1,-1,-1,-1,-1,-1,-1,-1,-1,-1,-1,-1,-1,-1,-1,-1,-1],"loss_changes":[9.61242E2,6.7606415E2,5.188535E2,6.082066E2,1.6991797E2,2.2897969E2,1.896106E2,4.961718E2,2.4197696E2,1.1407544E2,1.09723564E2,9.2222E1,1.1224335E2,6.344833E1,1.3175745E2,4.6094952E2,1.382617E2,1.9510425E2,6.903715E1,7.934631E1,4.7214783E1,9.058293E1,4.711589E1,5.5362183E1,4.5591393E1,5.0767036E1,7.0629364E1,5.6965996E1,3.3935432E1,6.77388E1,5.1327393E1,0E0,0E0,0E0,0E0,0E0,0E0,0E0,0E0,0E0,0E0,0E0,0E0,0E0,0E0,0E0,0E0,0E0,0E0,0E0,0E0,0E0,0E0,0E0,0E0,0E0,0E0,0E0,0E0,0E0,0E0,0E0,0E0],"parents":[2147483647,0,0,1,1,2,2,3,3,4,4,5,5,6,6,7,7,8,8,9,9,10,10,11,11,12,12,13,13,14,14,15,15,16,16,17,17,18,18,19,19,20,20,21,21,22,22,23,23,24,24,25,25,26,26,27,27,28,28,29,29,30,30],"right_children":[2,4,6,8,10,12,14,16,18,20,22,24,26,28,30,32,34,36,38,40,42,44,46,48,50,52,54,56,58,60,62,-1,-1,-1,-1,-1,-1,-1,-1,-1,-1,-1,-1,-1,-1,-1,-1,-1,-1,-1,-1,-1,-1,-1,-1,-1,-1,-1,-1,-1,-1,-1,-1],"split_conditions":[2.5749388E-1,3.007331E-1,-1.547646E2,2.613445E-1,8.85603E-2,2.7349097E-1,-1.0924989E2,2.5854865E-1,1.9690748E-1,2.8271708E-1,2.762328E-1,5.2587993E-2,4.7549225E-2,5.5022392E-2,1.204505E-1,1.8541907E-1,2.3254015E-1,5.2165687E-2,2.6062617E-1,2.6966083E-1,2.5030118E-1,2.649378E-1,9.844049E-2,1.3315468E-1,8.249537E-2,6.2704496E-2,2.3264417E-1,-2.2745303E2,2.3431954E-1,1.5395518E-1,1.26396065E2,-6.9380812E-3,-5.337081E-2,1.1905518E-2,6.384111E-2,1.22842025E-2,7.414037E-2,-2.4277894E-2,4.287333E-2,-8.027894E-2,-6.8616867E-3,-2.2365114E-2,9.17173E-2,-5.1383115E-2,1.47376E-2,6.788651E-3,9.9223725E-2,2.5731323E-2,7.72495E-2,-5.91617E-2,1.4524179E-2,-1.54743865E-2,5.9225846E-2,-9.640231E-3,-6.680389E-2,1.1190532E-2,7.741097E-2,-3.8615763E-2,4.6121847E-2,6.673282E-2,1.2420357E-3,1.07561104E-1,5.6653555E-2],"split_indices":[505,1372,4776,1776,1774,3360,4872,2165,1463,2173,1768,4359,4359,4359,322,1727,2211,1734,987,2191,2126,2128,1414,2905,3017,1341,1898,4586,984,1799,4588,0,0,0,0,0,0,0,0,0,0,0,0,0,0,0,0,0,0,0,0,0,0,0,0,0,0,0,0,0,0,0,0],"split_type":[0,0,0,0,0,0,0,0,0,0,0,0,0,0,0,0,0,0,0,0,0,0,0,0,0,0,0,0,0,0,0,0,0,0,0,0,0,0,0,0,0,0,0,0,0,0,0,0,0,0,0,0,0,0,0,0,0,0,0,0,0,0,0],"sum_hessian":[2.4663348E4,1.8984852E4,5.678497E3,1.5415676E4,3.5691743E3,2.7588442E3,2.919653E3,1.2245613E4,3.1700625E3,2.179217E3,1.3899574E3,1.4844543E3,1.2743898E3,7.738962E2,2.1457568E3,1.0057589E4,2.1880247E3,2.323722E3,8.463405E2,1.9929838E3,1.8623322E2,1.1427555E3,2.4720184E2,8.414102E2,6.430441E2,3.624639E2,9.119259E2,5.2021484E2,2.5368134E2,7.4031995E2,1.4054369E3,6.9754526E3,3.0821365E3,1.3690842E3,8.1894037E2,7.562203E2,1.5675016E3,6.468357E2,1.9950482E2,1.8327131E3,1.6027069E2,1.3815508E2,4.8078144E1,8.71544E2,2.7121152E2,1.6534196E2,8.185986E1,3.8907047E2,4.5233978E2,9.823717E1,5.4480695E2,1.8586807E2,1.7659583E2,3.5244867E2,5.5947723E2,2.7097113E2,2.492437E2,1.9201848E2,6.166286E1,5.120994E2,2.2822054E2,1.162254E3,2.4318288E2],"tree_param":{"num_deleted":"0","num_feature":"4890","num_nodes":"63","size_leaf_vector":"1"}},{"base_weights":[2.3527644E-3,-1.2764259E-1,2.906786E-1,-2.2690125E-1,3.0280066E-1,-3.87687E-2,4.7406715E-1,-1.06762685E-2,-4.0931752E-1,4.6517882E-1,-1.7421204E-1,-1.9530588E-1,2.3450299E-1,1.8112464E-1,7.06158E-1,1.2885717E-1,-3.2218152E-1,-6.74084E-1,-2.996197E-1,7.253034E-1,1.9598466E-1,-3.5051055E-2,-8.7338114E-1,-2.391197E-4,-4.0807202E-1,3.841026E-1,-1.5026926E-1,6.502452E-1,3.367758E-2,4.4474906E-1,9.602127E-1,1.6465767E-3,6.053322E-2,-4.880242E-2,1.3378623E-2,-7.915033E-2,-3.9913755E-2,-9.696171E-3,-5.1164854E-2,2.7892748E-2,8.642315E-2,4.069965E-2,-2.1044442E-2,-5.339091E-2,1.9734843E-2,-9.740434E-2,5.1307768E-2,-4.306811E-2,1.324597E-2,-7.431122E-2,-2.4029357E-2,5.588151E-2,-3.3696431E-3,2.3340093E-2,-4.4262484E-2,2.0972915E-2,8.240529E-2,-7.6776515E-3,5.9269417E-2,9.240205E-3,6.516742E-2,1.0493626E-1,4.5206774E-2],"categories":[],"categories_nodes":[],"categories_segments":[],"categories_sizes":[],"default_left":[0,0,0,0,0,0,0,0,0,0,0,0,0,0,0,0,0,0,0,0,0,0,0,0,0,0,0,0,0,0,0,0,0,0,0,0,0,0,0,0,0,0,0,0,0,0,0,0,0,0,0,0,0,0,0,0,0,0,0,0,0,0,0],"id":17,"left_children":[1,3,5,7,9,11,13,15,17,19,21,23,25,27,29,31,33,35,37,39,41,43,45,47,49,51,53,55,57,59,61,-1,-1,-1,-1,-1,-1,-1,-1,-1,-1,-1,-1,-1,-1,-1,-1,-1,-1,-1,-1,-1,-1,-1,-1,-1,-1,-1,-1,-1,-1,-1,-1],"loss_changes":[9.168734E2,7.204398E2,4.5929456E2,5.4043115E2,2.4483252E2,1.1636984E2,3.3189673E2,2.726068E2,2.1565063E2,1.649508E2,7.811817E1,7.1779205E1,5.7091595E1,1.4939246E2,1.8050623E2,2.319555E2,1.467841E2,6.994458E1,2.258194E2,7.409277E1,9.956903E1,7.788693E1,1.9101875E1,5.1650772E1,4.632083E1,5.2116882E1,3.1297874E1,3.937401E1,1.0159097E2,9.797586E1,6.207605E1,0E0,0E0,0E0,0E0,0E0,0E0,0E0,0E0,0E0,0E0,0E0,0E0,0E0,0E0,0E0,0E0,0E0,0E0,0E0,0E0,0E0,0E0,0E0,0E0,0E0,0E0,0E0,0E0,0E0,0E0,0E0,0E0],"parents":[2147483647,0,0,1,1,2,2,3,3,4,4,5,5,6,6,7,7,8,8,9,9,10,10,11,11,12,12,13,13,14,14,15,15,16,16,17,17,18,18,19,19,20,20,21,21,22,22,23,23,24,24,25,25,26,26,27,27,28,28,29,29,30,30],"right_children":[2,4,6,8,10,12,14,16,18,20,22,24,26,28,30,32,34,36,38,40,42,44,46,48,50,52,54,56,58,60,62,-1,-1,-1,-1,-1,-1,-1,-1,-1,-1,-1,-1,-1,-1,-1,-1,-1,-1,-1,-1,-1,-1,-1,-1,-1,-1,-1,-1,-1,-1,-1,-1],"split_conditions":[1.8682541E-1,2.7415362E-1,1.2426394E-1,1.8698774E-1,2.8135848E-1,1.9533063E-1,4.6517294E-2,2.3742029E-1,6.5493405E-2,1.4311537E-1,2.6424202E-1,1.6992162E-1,1.2745701E-1,-1.3212039E3,1.4031287E-1,2.5659126E-1,2.5009292E-1,7.725835E2,2.634623E-1,-1.545961E2,2.3840927E-1,4.4390917E-2,1.647376E-1,4.8084356E-2,4.3790564E-2,2.723869E-1,1.6008724E-1,9.7471096E-2,1.3223556E-1,1.21073216E-1,5.878301E-2,1.6465767E-3,6.053322E-2,-4.880242E-2,1.3378623E-2,-7.915033E-2,-3.9913755E-2,-9.696171E-3,-5.1164854E-2,2.7892748E-2,8.642315E-2,4.069965E-2,-2.1044442E-2,-5.339091E-2,1.9734843E-2,-9.740434E-2,5.1307768E-2,-4.306811E-2,1.324597E-2,-7.431122E-2,-2.4029357E-2,5.588151E-2,-3.3696431E-3,2.3340093E-2,-4.4262484E-2,2.0972915E-2,8.240529E-2,-7.6776515E-3,5.9269417E-2,9.240205E-3,6.516742E-2,1.0493626E-1,4.5206774E-2],"split_indices":[2904,1803,2078,966,3388,3406,1415,1373,901,930,1463,1067,3056,4392,46,2165,2191,4584,3360,4876,2947,1393,2972,654,2497,3010,1030,3370,1339,3379,4359,0,0,0,0,0,0,0,0,0,0,0,0,0,0,0,0,0,0,0,0,0,0,0,0,0,0,0,0,0,0,0,0],"split_type":[0,0,0,0,0,0,0,0,0,0,0,0,0,0,0,0,0,0,0,0,0,0,0,0,0,0,0,0,0,0,0,0,0,0,0,0,0,0,0,0,0,0,0,0,0,0,0,0,0,0,0,0,0,0,0,0,0,0,0,0,0,0,0],"sum_hessian":[2.4460348E4,1.6859559E4,7.6007886E3,1.37007E4,3.1588594E3,2.718301E3,4.8824873E3,6.269857E3,7.430843E3,2.3566616E3,8.021978E2,1.7284722E3,9.8982886E2,2.159089E3,2.7233984E3,4.3306177E3,1.9392395E3,2.1753284E3,5.2555146E3,1.197659E3,1.1590024E3,6.699105E2,1.322873E2,9.02265E2,8.262072E2,7.127234E2,2.7710547E2,5.155129E2,1.6435763E3,1.3436273E3,1.379771E3,3.5049104E3,8.2570715E2,1.4219746E3,5.1726495E2,1.5230237E3,6.523048E2,2.6878826E3,2.5676318E3,2.8499103E2,9.126681E2,7.629098E2,3.9609265E2,2.124906E2,4.5741992E2,1.23610176E2,8.677114E0,2.120811E2,6.901839E2,2.7454123E2,5.5166595E2,5.023263E2,2.103971E2,1.1992484E2,1.5718062E2,1.4647594E2,3.6903696E2,1.3731276E3,2.704487E2,4.97664E2,8.459633E2,1.1729258E3,2.0684517E2],"tree_param":{"num_deleted":"0","num_feature":"4890","num_nodes":"63","size_leaf_vector":"1"}},{"base_weights":[-1.8235352E-3,-1.3957287E-1,2.4902941E-1,7.070657E-2,-2.9108024E-1,9.354555E-2,6.227482E-1,-3.296679E-1,1.6468962E-1,-3.5532612E-1,2.8241265E-1,3.207191E-1,-1.8075734E-1,3.6158043E-1,9.1552126E-1,-7.567942E-1,-1.5113625E-1,3.2964832E-1,-1.4258692E-1,-6.463729E-1,-2.314589E-1,6.28206E-1,-1.90057E-1,6.328611E-2,5.434745E-1,1.6080856E-2,-4.7308138E-1,1.3409285E-1,6.558042E-1,4.8868638E-1,1.0525453E0,-1.0481552E-1,-4.297614E-2,-5.202496E-2,4.350517E-3,1.6716639E-2,7.111551E-2,-3.4264613E-2,1.810361E-2,-7.296409E-2,-1.8306034E-2,-3.262504E-2,1.9107917E-2,8.4036E-2,3.249684E-3,1.1469453E-2,-5.998979E-2,-7.6074596E-3,6.3330844E-2,6.819866E-2,9.630573E-3,5.5614125E-2,-1.1684683E-2,-5.8631297E-2,8.641741E-5,-1.1676889E-2,4.6598803E-2,9.688135E-2,3.2618437E-2,3.1663395E-2,1.1924978E-1,5.5034764E-2,1.1189798E-1],"categories":[],"categories_nodes":[],"categories_segments":[],"categories_sizes":[],"default_left":[0,0,0,0,0,0,0,0,0,0,0,0,0,0,0,0,0,0,0,0,0,0,0,0,0,0,0,0,0,0,0,0,0,0,0,0,0,0,0,0,0,0,0,0,0,0,0,0,0,0,0,0,0,0,0,0,0,0,0,0,0,0,0],"id":18,"left_children":[1,3,5,7,9,11,13,15,17,19,21,23,25,27,29,31,33,35,37,39,41,43,45,47,49,51,53,55,57,59,61,-1,-1,-1,-1,-1,-1,-1,-1,-1,-1,-1,-1,-1,-1,-1,-1,-1,-1,-1,-1,-1,-1,-1,-1,-1,-1,-1,-1,-1,-1,-1,-1],"loss_changes":[8.407929E2,5.0042896E2,5.01123E2,2.475935E2,3.364729E2,3.7968713E2,1.9342194E2,9.52802E1,2.7013934E2,2.958391E2,1.5046936E2,1.9107877E2,1.5884512E2,8.9662445E1,6.932068E1,3.4662582E1,6.3495895E1,2.148244E2,1.2061705E2,9.440466E1,2.3079724E2,6.715718E1,4.8738007E1,1.22951836E2,1.10591064E2,1.18560814E2,5.9613968E1,6.3121838E1,5.998271E1,3.4985077E1,2.9511292E1,0E0,0E0,0E0,0E0,0E0,0E0,0E0,0E0,0E0,0E0,0E0,0E0,0E0,0E0,0E0,0E0,0E0,0E0,0E0,0E0,0E0,0E0,0E0,0E0,0E0,0E0,0E0,0E0,0E0,0E0,0E0,0E0],"parents":[2147483647,0,0,1,1,2,2,3,3,4,4,5,5,6,6,7,7,8,8,9,9,10,10,11,11,12,12,13,13,14,14,15,15,16,16,17,17,18,18,19,19,20,20,21,21,22,22,23,23,24,24,25,25,26,26,27,27,28,28,29,29,30,30],"right_children":[2,4,6,8,10,12,14,16,18,20,22,24,26,28,30,32,34,36,38,40,42,44,46,48,50,52,54,56,58,60,62,-1,-1,-1,-1,-1,-1,-1,-1,-1,-1,-1,-1,-1,-1,-1,-1,-1,-1,-1,-1,-1,-1,-1,-1,-1,-1,-1,-1,-1,-1,-1,-1],"split_conditions":[2.1288186E-1,1.6051188E-1,9.4818585E-2,4.6268646E-2,2.6675054E-1,2.2215219E-1,1.7377964E-1,-3.6542865E2,2.0216358E-1,4.3748435E-2,2.7420145E-1,1.0657067E-1,2.9931906E-1,2.533271E-1,6.4312324E-2,5.8410652E-2,6.0595017E-2,2.9265606E-1,-8.445146E1,2.2713394E-1,2.678218E-1,1.6068475E-1,1.334804E-1,2.68515E-1,1.4038882E-1,-1.8932417E2,2.6349238E-1,2.3744537E-1,2.2071159E-1,2.9564545E-1,5.1707767E-2,-1.0481552E-1,-4.297614E-2,-5.202496E-2,4.350517E-3,1.6716639E-2,7.111551E-2,-3.4264613E-2,1.810361E-2,-7.296409E-2,-1.8306034E-2,-3.262504E-2,1.9107917E-2,8.4036E-2,3.249684E-3,1.1469453E-2,-5.998979E-2,-7.6074596E-3,6.3330844E-2,6.819866E-2,9.630573E-3,5.5614125E-2,-1.1684683E-2,-5.8631297E-2,8.641741E-5,-1.1676889E-2,4.6598803E-2,9.688135E-2,3.2618437E-2,3.1663395E-2,1.1924978E-1,5.5034764E-2,1.1189798E-1],"split_indices":[3370,1031,1339,901,1775,1030,3053,4584,1029,1744,3360,1733,1287,2656,700,626,1087,975,4776,267,1777,1462,1814,2138,2565,4684,2209,2509,3353,1804,2146,0,0,0,0,0,0,0,0,0,0,0,0,0,0,0,0,0,0,0,0,0,0,0,0,0,0,0,0,0,0,0,0],"split_type":[0,0,0,0,0,0,0,0,0,0,0,0,0,0,0,0,0,0,0,0,0,0,0,0,0,0,0,0,0,0,0,0,0,0,0,0,0,0,0,0,0,0,0,0,0,0,0,0,0,0,0,0,0,0,0,0,0,0,0,0,0,0,0],"sum_hessian":[2.4330133E4,1.5706024E4,8.624108E3,6.577518E3,9.128506E3,6.091161E3,2.5329475E3,1.2499851E3,5.3275327E3,8.209241E3,9.192647E2,3.3317153E3,2.7594458E3,1.3399141E3,1.1930334E3,3.6750714E2,8.8247797E2,3.4665E3,1.861033E3,2.449504E3,5.7597373E3,5.305982E2,3.8866644E2,1.5461509E3,1.7855646E3,1.6496134E3,1.1098325E3,7.5647754E2,5.834366E2,2.9103018E2,9.0200323E2,1.931872E2,1.7431995E2,3.041059E2,5.783721E2,2.4321128E3,1.0343873E3,1.1500372E3,7.1099567E2,2.0758508E3,3.7365308E2,4.7045537E3,1.0551837E3,3.909543E2,1.396439E2,2.233253E2,1.6534116E2,1.2431006E3,3.030503E2,1.362882E3,4.226826E2,3.2520056E2,1.3244128E3,8.956204E2,2.1421207E2,4.312027E2,3.252748E2,2.9826392E2,2.8517264E2,2.3502603E2,5.600414E1,1.0646764E2,7.955356E2],"tree_param":{"num_deleted":"0","num_feature":"4890","num_nodes":"63","size_leaf_vector":"1"}},{"base_weights":[-7.477665E-5,-2.5418034E-1,1.3071276E-1,-4.2263928E-1,-2.0157496E-2,3.3882302E-1,-5.460277E-2,-5.9031576E-1,2.1083498E-2,1.371115E-1,-3.7681532E-1,1.5431258E-1,5.994876E-1,3.1818086E-1,-1.4276133E-1,-7.733864E-1,-2.930734E-1,-1.2020377E-1,6.780264E-1,-2.8192917E-1,2.6562026E-1,1.7912653E-1,-4.7813055E-1,5.2522264E-2,6.502385E-1,3.9338323E-1,8.513248E-1,5.086289E-1,-3.461963E-2,-5.0177747E-1,-4.610588E-2,-8.2578436E-2,3.2350717E-3,-9.288342E-3,-6.0599525E-2,-2.2099527E-2,5.7999577E-2,2.6952177E-2,1.14835955E-1,-7.6406676E-4,-6.708286E-2,-1.6392184E-2,3.914627E-2,-2.3792757E-2,6.3141674E-2,-1.9490879E-2,-6.696849E-2,2.5757099E-2,-2.058895E-2,8.003193E-2,1.1486082E-3,5.47067E-2,7.6382407E-3,3.969781E-2,9.593727E-2,7.120343E-2,2.298777E-2,2.7193516E-2,-3.800836E-2,-6.653962E-2,-1.8600825E-2,1.5057004E-2,-2.3009898E-2],"categories":[],"categories_nodes":[],"categories_segments":[],"categories_sizes":[],"default_left":[0,0,0,0,0,0,0,0,0,0,0,0,0,0,0,0,0,0,0,0,0,0,0,0,0,0,0,0,0,0,0,0,0,0,0,0,0,0,0,0,0,0,0,0,0,0,0,0,0,0,0,0,0,0,0,0,0,0,0,0,0,0,0],"id":19,"left_children":[1,3,5,7,9,11,13,15,17,19,21,23,25,27,29,31,33,35,37,39,41,43,45,47,49,51,53,55,57,59,61,-1,-1,-1,-1,-1,-1,-1,-1,-1,-1,-1,-1,-1,-1,-1,-1,-1,-1,-1,-1,-1,-1,-1,-1,-1,-1,-1,-1,-1,-1,-1,-1],"loss_changes":[7.9972144E2,3.2234827E2,6.12704E2,3.5374573E2,1.9207785E2,3.598161E2,2.7624872E2,1.8753723E2,1.2119462E2,1.2805396E2,5.9108765E1,2.2122299E2,1.6063269E2,1.0804027E2,2.3586288E2,9.015332E1,8.243102E1,7.597704E1,4.4094383E1,5.95449E1,9.84061E1,3.0757069E1,4.7971603E1,1.9280331E2,7.15379E1,8.313495E1,6.809607E1,5.903958E1,5.9892017E1,7.436807E1,1.9388469E2,0E0,0E0,0E0,0E0,0E0,0E0,0E0,0E0,0E0,0E0,0E0,0E0,0E0,0E0,0E0,0E0,0E0,0E0,0E0,0E0,0E0,0E0,0E0,0E0,0E0,0E0,0E0,0E0,0E0,0E0,0E0,0E0],"parents":[2147483647,0,0,1,1,2,2,3,3,4,4,5,5,6,6,7,7,8,8,9,9,10,10,11,11,12,12,13,13,14,14,15,15,16,16,17,17,18,18,19,19,20,20,21,21,22,22,23,23,24,24,25,25,26,26,27,27,28,28,29,29,30,30],"right_children":[2,4,6,8,10,12,14,16,18,20,22,24,26,28,30,32,34,36,38,40,42,44,46,48,50,52,54,56,58,60,62,-1,-1,-1,-1,-1,-1,-1,-1,-1,-1,-1,-1,-1,-1,-1,-1,-1,-1,-1,-1,-1,-1,-1,-1,-1,-1,-1,-1,-1,-1,-1,-1],"split_conditions":[1.2632799E-1,1.2273881E-1,-3.2884384E1,1.3129202E-1,2.8342405E-1,1.3922691E-1,-1.3611575E3,1.4993088E-1,2.6514015E-1,1.1939162E-1,5.1474374E-2,2.872829E-1,1.3385889E-1,2.5078773E-1,3.0121146E-2,2.883391E-1,2.4272786E-1,2.0066357E-1,2.1491621E-1,2.075178E-1,5.148873E-2,2.388953E-1,2.8167984E-1,2.1307406E-1,2.7926934E-1,2.5111753E-1,2.4487399E-2,2.0308209E2,2.566798E-1,1.3292597E-1,4.981669E-2,-8.2578436E-2,3.2350717E-3,-9.288342E-3,-6.0599525E-2,-2.2099527E-2,5.7999577E-2,2.6952177E-2,1.14835955E-1,-7.6406676E-4,-6.708286E-2,-1.6392184E-2,3.914627E-2,-2.3792757E-2,6.3141674E-2,-1.9490879E-2,-6.696849E-2,2.5757099E-2,-2.058895E-2,8.003193E-2,1.1486082E-3,5.47067E-2,7.6382407E-3,3.969781E-2,9.593727E-2,7.120343E-2,2.298777E-2,2.7193516E-2,-3.800836E-2,-6.653962E-2,-1.8600825E-2,1.5057004E-2,-2.3009898E-2],"split_indices":[4363,1733,4778,1811,3360,2904,4392,1365,2163,2614,1067,1804,46,3361,627,2578,2250,1697,2211,1466,2522,948,3353,1030,930,3325,1415,4488,1475,1261,4359,0,0,0,0,0,0,0,0,0,0,0,0,0,0,0,0,0,0,0,0,0,0,0,0,0,0,0,0,0,0,0,0],"split_type":[0,0,0,0,0,0,0,0,0,0,0,0,0,0,0,0,0,0,0,0,0,0,0,0,0,0,0,0,0,0,0,0,0,0,0,0,0,0,0,0,0,0,0,0,0,0,0,0,0,0,0,0,0,0,0,0,0,0,0,0,0,0,0],"sum_hessian":[2.4061469E4,8.1758203E3,1.5885648E4,4.753358E3,3.4224624E3,7.482234E3,8.403415E3,3.449508E3,1.30385E3,2.375567E3,1.0468955E3,4.382026E3,3.1002083E3,1.6067155E3,6.796699E3,2.1337415E3,1.3157668E3,1.07374E3,2.3010991E2,5.572606E2,1.8183063E3,1.6125903E2,8.856364E2,3.63669E3,7.453358E2,1.7063157E3,1.3938925E3,1.0431582E3,5.6355725E2,1.4408029E3,5.3558965E3,2.0034314E3,1.3030998E2,8.032128E2,5.1255396E2,9.392258E2,1.3451419E2,1.23991234E2,1.0611867E2,3.273806E2,2.2988E2,4.1193445E2,1.4063718E3,8.4144165E1,7.7114876E1,3.5813507E2,5.2750134E2,2.0277117E3,1.6089781E3,6.0332587E2,1.4200993E2,1.1486959E3,5.576198E2,2.686941E2,1.1251985E3,6.021867E2,4.4097147E2,2.987065E2,2.6485074E2,9.483165E2,4.9248636E2,2.5888142E3,2.767082E3],"tree_param":{"num_deleted":"0","num_feature":"4890","num_nodes":"63","size_leaf_vector":"1"}},{"base_weights":[5.3787703E-4,1.1147831E-1,-2.737734E-1,2.698951E-1,-9.185723E-2,-4.8634756E-1,-2.7352601E-2,-2.1795567E-2,4.7152415E-1,-2.8890187E-1,8.011181E-2,-2.557019E-1,-7.0020545E-1,1.1693973E-1,-4.148164E-1,-3.3528116E-1,1.6079758E-1,3.2768026E-1,7.6280385E-1,-3.5451332E-1,3.3461487E-1,2.732364E-1,-1.761868E-1,-3.6627078E-1,1.8011443E-1,-9.43749E-1,-4.604628E-1,-1.7542867E-2,5.276333E-1,-5.2658886E-1,2.5377718E-1,-5.7094283E-2,-4.61241E-3,6.4501627E-3,6.898001E-2,4.232991E-2,-8.195789E-3,4.59318E-2,9.337385E-2,-2.4810536E-2,-6.63845E-2,1.1297979E-1,1.4868294E-2,-1.7983137E-2,4.3555055E-2,1.5944956E-2,-3.3847585E-2,-6.079016E-2,-1.8228002E-2,-2.7498085E-2,4.832938E-2,-9.906264E-2,-2.6913112E-2,-1.1131394E-2,-6.600415E-2,-2.9211614E-2,1.7779443E-2,-3.5698052E-2,6.9674425E-2,-2.8836582E-2,-7.872382E-2,6.0416248E-2,-3.8934376E-2],"categories":[],"categories_nodes":[],"categories_segments":[],"categories_sizes":[],"default_left":[0,0,0,0,0,0,0,0,0,0,0,0,0,0,0,0,0,0,0,0,0,0,0,0,0,0,0,0,0,0,0,0,0,0,0,0,0,0,0,0,0,0,0,0,0,0,0,0,0,0,0,0,0,0,0,0,0,0,0,0,0,0,0],"id":20,"left_children":[1,3,5,7,9,11,13,15,17,19,21,23,25,27,29,31,33,35,37,39,41,43,45,47,49,51,53,55,57,59,61,-1,-1,-1,-1,-1,-1,-1,-1,-1,-1,-1,-1,-1,-1,-1,-1,-1,-1,-1,-1,-1,-1,-1,-1,-1,-1,-1,-1,-1,-1,-1,-1],"loss_changes":[7.2850415E2,5.49075E2,3.6109027E2,5.635008E2,2.5297958E2,1.8236884E2,1.7860062E2,2.242581E2,2.3711145E2,1.4244766E2,1.9739133E2,8.594297E1,1.116557E2,1.2857898E2,6.491176E1,9.823801E1,1.26078125E2,1.4864563E2,9.668494E1,1.034639E2,4.88822E1,1.6731183E2,9.340791E1,6.3100357E1,4.9984924E1,2.9820007E1,6.7475555E1,9.4158264E1,8.615677E1,4.59075E1,2.8364622E1,0E0,0E0,0E0,0E0,0E0,0E0,0E0,0E0,0E0,0E0,0E0,0E0,0E0,0E0,0E0,0E0,0E0,0E0,0E0,0E0,0E0,0E0,0E0,0E0,0E0,0E0,0E0,0E0,0E0,0E0,0E0,0E0],"parents":[2147483647,0,0,1,1,2,2,3,3,4,4,5,5,6,6,7,7,8,8,9,9,10,10,11,11,12,12,13,13,14,14,15,15,16,16,17,17,18,18,19,19,20,20,21,21,22,22,23,23,24,24,25,25,26,26,27,27,28,28,29,29,30,30],"right_children":[2,4,6,8,10,12,14,16,18,20,22,24,26,28,30,32,34,36,38,40,42,44,46,48,50,52,54,56,58,60,62,-1,-1,-1,-1,-1,-1,-1,-1,-1,-1,-1,-1,-1,-1,-1,-1,-1,-1,-1,-1,-1,-1,-1,-1,-1,-1,-1,-1,-1,-1,-1,-1],"split_conditions":[1.4161478E-1,5.266249E-2,7.7228874E-2,6.351546E-2,1.3268013E-1,2.3966768E-1,2.6786196E-1,4.458505E-2,1.7283459E-1,2.7971405E-1,2.6616597E-1,1.4594059E-1,7.938419E-2,2.87459E-1,2.3552525E-1,9.3772964E1,3.201952E-1,3.0326298E-1,7.7844664E-2,1.9689487E-1,1.2986466E-2,1.0218865E-1,1.3035834E-1,1.0696269E-1,4.7563273E-2,2.7222374E-1,1.8402158E-1,3.545485E-2,3.324935E-2,5.266249E-2,1.5262638E-1,-5.7094283E-2,-4.61241E-3,6.4501627E-3,6.898001E-2,4.232991E-2,-8.195789E-3,4.59318E-2,9.337385E-2,-2.4810536E-2,-6.63845E-2,1.1297979E-1,1.4868294E-2,-1.7983137E-2,4.3555055E-2,1.5944956E-2,-3.3847585E-2,-6.079016E-2,-1.8228002E-2,-2.7498085E-2,4.832938E-2,-9.906264E-2,-2.6913112E-2,-1.1131394E-2,-6.600415E-2,-2.9211614E-2,1.7779443E-2,-3.5698052E-2,6.9674425E-2,-2.8836582E-2,-7.872382E-2,6.0416248E-2,-3.8934376E-2],"split_indices":[2573,4359,1811,664,3379,3354,3388,618,46,2220,3360,4363,1396,986,1810,4584,975,3352,1416,1727,2631,2509,994,1743,1369,2201,2628,1339,901,4359,1039,0,0,0,0,0,0,0,0,0,0,0,0,0,0,0,0,0,0,0,0,0,0,0,0,0,0,0,0,0,0,0,0],"split_type":[0,0,0,0,0,0,0,0,0,0,0,0,0,0,0,0,0,0,0,0,0,0,0,0,0,0,0,0,0,0,0,0,0,0,0,0,0,0,0,0,0,0,0,0,0,0,0,0,0,0,0,0,0,0,0,0,0,0,0,0,0,0,0],"sum_hessian":[2.3936586E4,1.7044021E4,6.892565E3,9.580004E3,7.4640176E3,3.6998909E3,3.1926738E3,3.9158923E3,5.6641113E3,3.4780906E3,3.9859268E3,1.7811339E3,1.918757E3,2.3268489E3,8.6582513E2,1.4410261E3,2.4748662E3,3.7930823E3,1.871029E3,3.1473342E3,3.3075653E2,2.2730703E3,1.7128566E3,1.4208232E3,3.6031073E2,9.503765E2,9.683805E2,1.7535891E3,5.732597E2,7.419943E2,1.2383083E2,7.934189E2,6.4760724E2,2.094686E3,3.8018024E2,3.0752222E3,7.178601E2,6.754638E2,1.1955653E3,2.3431191E3,8.042149E2,6.171991E1,2.690366E2,5.995203E2,1.67355E3,5.5827783E2,1.1545787E3,6.132078E2,8.076154E2,1.4409947E2,2.1621126E2,8.881902E2,6.2186337E1,3.5277798E2,6.156025E2,7.2874414E2,1.024845E3,9.182343E1,4.8143628E2,3.8877545E2,3.5321884E2,8.0197945E1,4.3632885E1],"tree_param":{"num_deleted":"0","num_feature":"4890","num_nodes":"63","size_leaf_vector":"1"}},{"base_weights":[-3.0684436E-4,-2.0804039E-1,1.4152735E-1,-3.000642E-1,1.7763788E-1,-2.2540505E-3,4.0724072E-1,-2.039151E-1,-6.3276225E-1,-1.0240578E-1,5.0669706E-1,1.4545573E-1,-2.2147007E-1,5.941651E-1,6.202868E-2,-7.010312E-3,-3.5400447E-1,-7.7104294E-1,-3.645034E-1,-2.2771348E-1,6.7054635E-1,2.4327219E-1,9.383486E-1,-7.496958E-2,3.0353385E-1,-3.4287155E-2,-4.8789856E-1,2.8024337E-1,7.7607185E-1,2.2679259E-1,-4.8483965E-1,-2.0687578E-2,1.6890088E-2,-5.492735E-2,-1.8390553E-2,-8.1839554E-2,4.2722138E-4,-1.4145297E-2,-7.0934616E-2,-5.324784E-2,3.4633004E-3,8.24307E-2,-6.394153E-2,4.5601655E-2,-3.3459418E-2,6.0138315E-2,1.2003946E-1,-1.4244339E-2,5.4367054E-2,4.9785916E-2,7.4970373E-3,2.7394835E-2,-1.9512637E-2,1.4339638E-3,-6.4965725E-2,1.0475111E-2,6.407087E-2,1.3608016E-2,8.7050766E-2,3.7969206E-2,-2.2428982E-2,1.4695398E-2,-6.830307E-2],"categories":[],"categories_nodes":[],"categories_segments":[],"categories_sizes":[],"default_left":[0,0,0,0,0,0,0,0,0,0,0,0,0,0,0,0,0,0,0,0,0,0,0,0,0,0,0,0,0,0,0,0,0,0,0,0,0,0,0,0,0,0,0,0,0,0,0,0,0,0,0,0,0,0,0,0,0,0,0,0,0,0,0],"id":21,"left_children":[1,3,5,7,9,11,13,15,17,19,21,23,25,27,29,31,33,35,37,39,41,43,45,47,49,51,53,55,57,59,61,-1,-1,-1,-1,-1,-1,-1,-1,-1,-1,-1,-1,-1,-1,-1,-1,-1,-1,-1,-1,-1,-1,-1,-1,-1,-1,-1,-1,-1,-1,-1,-1],"loss_changes":[7.004998E2,3.4242307E2,5.397748E2,2.4901721E2,1.7135281E2,2.9691806E2,3.2007562E2,1.7861284E2,6.447772E1,9.75021E1,9.697267E1,1.9091269E2,1.8407422E2,1.8354968E2,1.572246E2,9.1982666E1,1.1381354E2,4.226239E1,4.5719246E1,6.922838E1,2.8819275E1,6.558148E1,2.7853882E1,9.561569E1,1.4167398E2,1.07594E2,1.23753174E2,7.4717445E1,1.2298718E2,9.2551056E1,5.0692184E1,0E0,0E0,0E0,0E0,0E0,0E0,0E0,0E0,0E0,0E0,0E0,0E0,0E0,0E0,0E0,0E0,0E0,0E0,0E0,0E0,0E0,0E0,0E0,0E0,0E0,0E0,0E0,0E0,0E0,0E0,0E0,0E0],"parents":[2147483647,0,0,1,1,2,2,3,3,4,4,5,5,6,6,7,7,8,8,9,9,10,10,11,11,12,12,13,13,14,14,15,15,16,16,17,17,18,18,19,19,20,20,21,21,22,22,23,23,24,24,25,25,26,26,27,27,28,28,29,29,30,30],"right_children":[2,4,6,8,10,12,14,16,18,20,22,24,26,28,30,32,34,36,38,40,42,44,46,48,50,52,54,56,58,60,62,-1,-1,-1,-1,-1,-1,-1,-1,-1,-1,-1,-1,-1,-1,-1,-1,-1,-1,-1,-1,-1,-1,-1,-1,-1,-1,-1,-1,-1,-1,-1,-1],"split_conditions":[1.0474811E-1,2.7192053E-1,1.6915083E-1,2.1551971E-1,1.1018246E-1,1.1754325E-1,5.4775283E-2,1.4888656E-1,6.674726E2,1.6024017E-1,2.7356723E-1,1.18271485E-1,1.6102421E-1,4.2318776E-2,2.8913352E-1,1.43996E-1,5.4513395E-2,2.898454E-1,1.4148825E-1,8.263481E-2,3.2938802E-1,2.699498E-1,2.3569815E-1,2.65681E-1,2.4075946E-1,8.8992365E-2,7.042299E-2,7.947739E-2,-3.2073462E2,2.6813993E-1,1.3343705E-1,-2.0687578E-2,1.6890088E-2,-5.492735E-2,-1.8390553E-2,-8.1839554E-2,4.2722138E-4,-1.4145297E-2,-7.0934616E-2,-5.324784E-2,3.4633004E-3,8.24307E-2,-6.394153E-2,4.5601655E-2,-3.3459418E-2,6.0138315E-2,1.2003946E-1,-1.4244339E-2,5.4367054E-2,4.9785916E-2,7.4970373E-3,2.7394835E-2,-1.9512637E-2,1.4339638E-3,-6.4965725E-2,1.0475111E-2,6.407087E-2,1.3608016E-2,8.7050766E-2,3.7969206E-2,-2.2428982E-2,1.4695398E-2,-6.830307E-2],"split_indices":[2060,1803,83,207,1356,2600,4359,1030,4584,961,948,3379,1793,1405,3388,2615,1772,119,2151,1396,1398,2947,2598,1775,3387,930,1798,1339,4872,3325,1871,0,0,0,0,0,0,0,0,0,0,0,0,0,0,0,0,0,0,0,0,0,0,0,0,0,0,0,0,0,0,0,0],"split_type":[0,0,0,0,0,0,0,0,0,0,0,0,0,0,0,0,0,0,0,0,0,0,0,0,0,0,0,0,0,0,0,0,0,0,0,0,0,0,0,0,0,0,0,0,0,0,0,0,0,0,0,0,0,0,0,0,0,0,0,0,0,0,0],"sum_hessian":[2.3772996E4,9.645505E3,1.412749E4,7.787589E3,1.8579166E3,9.167703E3,4.959787E3,6.042834E3,1.7447546E3,1.00408527E3,8.5383136E2,5.47735E3,3.6903528E3,3.2170872E3,1.7427001E3,2.614229E3,3.428605E3,1.1500555E3,5.9469916E2,8.646219E2,1.3946341E2,5.312114E2,3.2261993E2,2.2877793E3,3.1895708E3,2.1681902E3,1.5221625E3,1.1811989E3,2.0358883E3,1.3396632E3,4.0303683E2,1.2237087E3,1.3905203E3,1.5951669E3,1.8334381E3,1.0838063E3,6.6249245E1,3.6197644E2,2.3272269E2,3.994989E2,4.65123E2,1.25144905E2,1.4318512E1,3.8842258E2,1.4278883E2,1.4257608E2,1.8004385E2,2.0634885E3,2.2429074E2,1.7232667E3,1.4663041E3,7.4320123E2,1.424989E3,3.7104156E2,1.151121E3,7.952988E2,3.8590005E2,2.6209705E2,1.7737913E3,1.00064246E3,3.3902075E2,9.630241E1,3.067344E2],"tree_param":{"num_deleted":"0","num_feature":"4890","num_nodes":"63","size_leaf_vector":"1"}},{"base_weights":[8.047719E-4,2.1349871E-1,-1.2724192E-1,5.5950712E-2,4.6774152E-1,-3.3932102E-1,-3.7657293E-3,2.5808665E-1,-2.1832997E-1,2.0432107E-1,7.2067904E-1,-1.888134E-1,-6.4682955E-1,-8.35554E-2,3.8471892E-1,7.110246E-2,5.9377956E-1,-4.948847E-2,-5.5778056E-1,-2.678272E-1,3.5179222E-1,3.8697693E-1,8.980698E-1,-4.7120982E-1,-3.0718677E-2,-7.642412E-1,-2.222523E-1,-2.8528345E-1,5.7996165E-2,5.3804135E-1,1.0657182E-1,2.5535284E-2,-2.290142E-2,-6.9838585E-3,6.9839165E-2,2.092719E-2,-2.4913562E-2,-6.527664E-2,1.1293493E-2,-6.4410664E-2,5.69233E-3,2.3648683E-2,8.2981914E-2,7.224433E-3,7.2821274E-2,6.290467E-2,1.0395696E-1,-7.03152E-2,-1.793432E-2,-1.0841183E-2,6.285938E-2,-3.1976555E-2,-8.3664104E-2,-4.0287256E-2,3.787099E-2,-3.6765035E-2,2.2471908E-2,-8.92245E-3,3.280816E-2,1.1802515E-2,6.8890624E-2,-3.2210678E-2,2.645216E-2],"categories":[],"categories_nodes":[],"categories_segments":[],"categories_sizes":[],"default_left":[0,0,0,0,0,0,0,0,0,0,0,0,0,0,0,0,0,0,0,0,0,0,0,0,0,0,0,0,0,0,0,0,0,0,0,0,0,0,0,0,0,0,0,0,0,0,0,0,0,0,0,0,0,0,0,0,0,0,0,0,0,0,0],"id":22,"left_children":[1,3,5,7,9,11,13,15,17,19,21,23,25,27,29,31,33,35,37,39,41,43,45,47,49,51,53,55,57,59,61,-1,-1,-1,-1,-1,-1,-1,-1,-1,-1,-1,-1,-1,-1,-1,-1,-1,-1,-1,-1,-1,-1,-1,-1,-1,-1,-1,-1,-1,-1,-1,-1],"loss_changes":[6.422141E2,3.5491986E2,3.8544937E2,3.0344666E2,2.2573517E2,2.5055896E2,2.8842813E2,1.9773737E2,1.3307196E2,1.1582062E2,1.0200745E2,1.62401E2,8.8535706E1,2.2044585E2,6.7557816E1,1.12024254E2,7.829321E1,8.022958E1,4.9213028E1,4.8444107E1,6.96351E1,6.458957E1,4.229297E1,8.825754E1,1.19589676E2,4.4576843E1,4.2148094E1,1.3380469E2,1.8043742E2,6.4668396E1,3.8317497E1,0E0,0E0,0E0,0E0,0E0,0E0,0E0,0E0,0E0,0E0,0E0,0E0,0E0,0E0,0E0,0E0,0E0,0E0,0E0,0E0,0E0,0E0,0E0,0E0,0E0,0E0,0E0,0E0,0E0,0E0,0E0,0E0],"parents":[2147483647,0,0,1,1,2,2,3,3,4,4,5,5,6,6,7,7,8,8,9,9,10,10,11,11,12,12,13,13,14,14,15,15,16,16,17,17,18,18,19,19,20,20,21,21,22,22,23,23,24,24,25,25,26,26,27,27,28,28,29,29,30,30],"right_children":[2,4,6,8,10,12,14,16,18,20,22,24,26,28,30,32,34,36,38,40,42,44,46,48,50,52,54,56,58,60,62,-1,-1,-1,-1,-1,-1,-1,-1,-1,-1,-1,-1,-1,-1,-1,-1,-1,-1,-1,-1,-1,-1,-1,-1,-1,-1,-1,-1,-1,-1,-1,-1],"split_conditions":[-1.0149863E2,9.038029E1,5.7132114E-2,2.4280912E-1,2.265161E-1,2.687261E-1,2.653961E-1,2.7640945E-1,2.6114067E-1,8.1673376E-2,7.888769E-2,8.959638E-2,1.3327742E-1,6.3275635E-2,1.823447E-1,1.1712222E-1,3.429982E-2,9.1711745E-2,2.2893326E-1,2.7691287E2,2.8300828E-1,1.6795972E-1,8.4439345E-2,9.799312E-2,2.7758712E-1,1.0494599E-1,2.033837E-1,2.7012324E-1,1.0944957E-1,1.4373475E-1,1.71001E-2,2.5535284E-2,-2.290142E-2,-6.9838585E-3,6.9839165E-2,2.092719E-2,-2.4913562E-2,-6.527664E-2,1.1293493E-2,-6.4410664E-2,5.69233E-3,2.3648683E-2,8.2981914E-2,7.224433E-3,7.2821274E-2,6.290467E-2,1.0395696E-1,-7.03152E-2,-1.793432E-2,-1.0841183E-2,6.285938E-2,-3.1976555E-2,-8.3664104E-2,-4.0287256E-2,3.787099E-2,-3.6765035E-2,2.2471908E-2,-8.92245E-3,3.280816E-2,1.1802515E-2,6.8890624E-2,-3.2210678E-2,2.645216E-2],"split_indices":[4778,4872,1801,967,2277,1345,977,986,3325,523,268,1806,1734,2228,1408,2187,590,2565,3000,4584,628,3379,1310,1775,1839,2982,3369,2220,1413,2992,2970,0,0,0,0,0,0,0,0,0,0,0,0,0,0,0,0,0,0,0,0,0,0,0,0,0,0,0,0,0,0,0,0],"split_type":[0,0,0,0,0,0,0,0,0,0,0,0,0,0,0,0,0,0,0,0,0,0,0,0,0,0,0,0,0,0,0,0,0,0,0,0,0,0,0,0,0,0,0,0,0,0,0,0,0,0,0,0,0,0,0,0,0,0,0,0,0,0,0],"sum_hessian":[2.3578686E4,8.860367E3,1.4718317E4,5.4712124E3,3.3891553E3,5.41534E3,9.302978E3,3.1498984E3,2.3213137E3,1.6610607E3,1.7280947E3,3.6369014E3,1.7784385E3,7.7184863E3,1.5844913E3,2.023822E3,1.1260765E3,1.5509984E3,7.7031525E2,3.9514282E2,1.2659177E3,6.008935E2,1.1272012E3,1.3045934E3,2.332308E3,1.3925469E3,3.858917E2,3.182304E3,4.5361826E3,1.020841E3,5.636503E2,1.2540645E3,7.6975757E2,1.5338626E2,9.7269025E2,6.754749E2,8.755235E2,6.747805E2,9.553473E1,1.8259346E2,2.1254938E2,1.02110956E3,2.4480824E2,3.132161E2,2.8767743E2,3.904028E2,7.367984E2,7.2613525E2,5.784581E2,2.08719E3,2.4511818E2,1.958157E2,1.1967311E3,2.9696725E2,8.892442E1,2.7400562E3,4.4224792E2,2.9363042E3,1.5998783E3,2.7024533E2,